{"learner":{"attributes":{"scikit_learn":"{\"_estimator_type\": \"regressor\"}"},"feature_names":["POV","FOOD","ELEC","WATER","LIFE","HEALTH","SCHOOL","STUNTING"],"feature_types":["float","float","float","float","float","float","float","float"],"gradient_booster":{"model":{"gbtree_model_param":{"num_parallel_tree":"1","num_trees":"100"},"iteration_indptr":[0,1,2,3,4,5,6,7,8,9,10,11,12,13,14,15,16,17,18,19,20,21,22,23,24,25,26,27,28,29,30,31,32,33,34,35,36,37,38,39,40,41,42,43,44,45,46,47,48,49,50,51,52,53,54,55,56,57,58,59,60,61,62,63,64,65,66,67,68,69,70,71,72,73,74,75,76,77,78,79,80,81,82,83,84,85,86,87,88,89,90,91,92,93,94,95,96,97,98,99,100],"tree_info":[0,0,0,0,0,0,0,0,0,0,0,0,0,0,0,0,0,0,0,0,0,0,0,0,0,0,0,0,0,0,0,0,0,0,0,0,0,0,0,0,0,0,0,0,0,0,0,0,0,0,0,0,0,0,0,0,0,0,0,0,0,0,0,0,0,0,0,0,0,0,0,0,0,0,0,0,0,0,0,0,0,0,0,0,0,0,0,0,0,0,0,0,0,0,0,0,0,0,0,0],"trees":[{"base_weights":[8.3875295E-4,-2.6357323E-2,2.3180706E-2,6.728167E-2,-1.5236035E-1,3.857016E-3,4.392013E-4,-3.13731E-3,-1.4521782E-2],"categories":[],"categories_nodes":[],"categories_segments":[],"categories_sizes":[],"default_left":[0,0,0,0,0,0,0,0,0],"id":0,"left_children":[1,-1,3,5,7,-1,-1,-1,-1],"loss_changes":[8.927388E0,0E0,3.7083871E0,1.0597439E0,1.5604861E0,0E0,0E0,0E0,0E0],"parents":[2147483647,0,0,2,2,3,3,4,4],"right_children":[2,-1,4,6,8,-1,-1,-1,-1],"split_conditions":[5.58E0,-2.6357323E-2,1.0726147E0,5.131579E-1,1.4908601E0,3.857016E-3,4.392013E-4,-3.13731E-3,-1.4521782E-2],"split_indices":[6,0,5,5,5,0,0,0,0],"split_type":[0,0,0,0,0,0,0,0,0],"sum_hessian":[4.92E2,1.3E1,4.79E2,3.83E2,9.6E1,1.95E2,1.88E2,8.1E1,1.5E1],"tree_param":{"num_deleted":"0","num_feature":"8","num_nodes":"9","size_leaf_vector":"1"}},{"base_weights":[-2.577268E-3,3.2804616E-2,-6.711495E-1,9.7207434E-2,-4.2723175E-2,-8.755211E-3,-2.8909054E-2,3.7615653E-3,4.2544026E-4,-3.708508E-4,-5.049615E-3],"categories":[],"categories_nodes":[],"categories_segments":[],"categories_sizes":[],"default_left":[0,0,0,0,0,0,0,0,0,0,0],"id":1,"left_children":[1,3,5,7,9,-1,-1,-1,-1,-1,-1],"loss_changes":[1.1825734E1,2.308142E0,2.160184E0,4.0090036E-1,7.666384E-1,0E0,0E0,0E0,0E0,0E0,0E0],"parents":[2147483647,0,0,1,1,2,2,3,3,4,4],"right_children":[2,4,6,8,10,-1,-1,-1,-1,-1,-1],"split_conditions":[2.4945278E0,6.98017E-1,1.21020775E1,8.545043E0,2.162815E0,-8.755211E-3,-2.8909054E-2,3.7615653E-3,4.2544026E-4,-3.708508E-4,-5.049615E-3],"split_indices":[0,5,3,3,0,0,0,0,0,0,0],"split_type":[0,0,0,0,0,0,0,0,0,0,0],"sum_hessian":[4.99E2,4.74E2,2.5E1,2.56E2,2.18E2,9E0,1.6E1,2.09E2,4.7E1,1.71E2,4.7E1],"tree_param":{"num_deleted":"0","num_feature":"8","num_nodes":"11","size_leaf_vector":"1"}},{"base_weights":[-1.4977348E-3,3.3387933E-2,-6.496063E-1,9.543638E-2,-4.084878E-2,-1.6279284E-2,-2.6834123E-2,3.5024341E-3,7.559254E-4,-2.1276147E-4,-4.9976436E-3],"categories":[],"categories_nodes":[],"categories_segments":[],"categories_sizes":[],"default_left":[0,0,0,0,0,0,0,0,0,0,0],"id":2,"left_children":[1,3,5,7,9,-1,-1,-1,-1,-1,-1],"loss_changes":[1.1122352E1,2.1489701E0,5.733385E-1,2.2651434E-1,8.195586E-1,0E0,0E0,0E0,0E0,0E0,0E0],"parents":[2147483647,0,0,1,1,2,2,3,3,4,4],"right_children":[2,4,6,8,10,-1,-1,-1,-1,-1,-1],"split_conditions":[2.4945278E0,6.98017E-1,1.4908601E0,2.92E1,2.140268E0,-1.6279284E-2,-2.6834123E-2,3.5024341E-3,7.559254E-4,-2.1276147E-4,-4.9976436E-3],"split_indices":[0,5,5,7,0,0,0,0,0,0,0],"split_type":[0,0,0,0,0,0,0,0,0,0,0],"sum_hessian":[4.91E2,4.66E2,2.5E1,2.54E2,2.12E2,1.4E1,1.1E1,2.16E2,3.8E1,1.63E2,4.9E1],"tree_param":{"num_deleted":"0","num_feature":"8","num_nodes":"11","size_leaf_vector":"1"}},{"base_weights":[-9.449763E-4,3.2418694E-2,-6.287897E-1,-3.684839E-2,7.8761816E-2,-9.875173E-3,-2.9850202E-2,-1.0034656E-2,-7.418262E-4,1.5653268E-3,4.1947267E-3],"categories":[],"categories_nodes":[],"categories_segments":[],"categories_sizes":[],"default_left":[0,0,0,0,0,0,0,0,0,0,0],"id":3,"left_children":[1,3,5,7,9,-1,-1,-1,-1,-1,-1],"loss_changes":[1.0430879E1,1.5169702E0,2.309764E0,7.11244E-1,4.3148446E-1,0E0,0E0,0E0,0E0,0E0,0E0],"parents":[2147483647,0,0,1,1,2,2,3,3,4,4],"right_children":[2,4,6,8,10,-1,-1,-1,-1,-1,-1],"split_conditions":[2.4945278E0,6.956E1,9.453162E0,4.741115E0,7.278E1,-9.875173E-3,-2.9850202E-2,-1.0034656E-2,-7.418262E-4,1.5653268E-3,4.1947267E-3],"split_indices":[0,4,1,1,4,0,0,0,0,0,0],"split_type":[0,0,0,0,0,0,0,0,0,0,0],"sum_hessian":[4.97E2,4.72E2,2.5E1,1.89E2,2.83E2,1.2E1,1.3E1,9E0,1.8E2,1.77E2,1.06E2],"tree_param":{"num_deleted":"0","num_feature":"8","num_nodes":"11","size_leaf_vector":"1"}},{"base_weights":[-4.96315E-4,3.207887E-2,-6.362358E-1,6.1919775E-2,-1.026807E-1,-1.5209441E-2,-2.7862655E-2,3.396472E-3,5.1735714E-4,5.4837676E-4,-4.6140454E-3],"categories":[],"categories_nodes":[],"categories_segments":[],"categories_sizes":[],"default_left":[0,0,0,0,0,0,0,0,0,0,0],"id":4,"left_children":[1,3,5,7,9,-1,-1,-1,-1,-1,-1],"loss_changes":[1.0250691E1,1.890352E0,8.148165E-1,7.5455105E-1,4.0638983E-1,0E0,0E0,0E0,0E0,0E0,0E0],"parents":[2147483647,0,0,1,1,2,2,3,3,4,4],"right_children":[2,4,6,8,10,-1,-1,-1,-1,-1,-1],"split_conditions":[2.4945278E0,1.0726147E0,1.4908601E0,5.131579E-1,2.17E1,-1.5209441E-2,-2.7862655E-2,3.396472E-3,5.1735714E-4,5.4837676E-4,-4.6140454E-3],"split_indices":[0,5,5,5,7,0,0,0,0,0,0],"split_type":[0,0,0,0,0,0,0,0,0,0,0],"sum_hessian":[4.94E2,4.7E2,2.4E1,3.85E2,8.5E1,1.4E1,1E1,1.99E2,1.86E2,2.1E1,6.4E1],"tree_param":{"num_deleted":"0","num_feature":"8","num_nodes":"11","size_leaf_vector":"1"}},{"base_weights":[-2.3568017E-4,2.8910873E-2,-5.9251016E-1,-3.749437E-2,7.381974E-2,-9.504573E-3,-2.785884E-2,-9.667625E-3,-7.8242406E-4,1.444931E-3,3.9412216E-3],"categories":[],"categories_nodes":[],"categories_segments":[],"categories_sizes":[],"default_left":[0,0,0,0,0,0,0,0,0,0,0],"id":5,"left_children":[1,3,5,7,9,-1,-1,-1,-1,-1,-1],"loss_changes":[8.511691E0,1.4002843E0,1.7845345E0,6.5000534E-1,3.862605E-1,0E0,0E0,0E0,0E0,0E0,0E0],"parents":[2147483647,0,0,1,1,2,2,3,3,4,4],"right_children":[2,4,6,8,10,-1,-1,-1,-1,-1,-1],"split_conditions":[2.4945278E0,6.956E1,9.453162E0,4.741115E0,7.278E1,-9.504573E-3,-2.785884E-2,-9.667625E-3,-7.8242406E-4,1.444931E-3,3.9412216E-3],"split_indices":[0,4,1,1,4,0,0,0,0,0,0],"split_type":[0,0,0,0,0,0,0,0,0,0,0],"sum_hessian":[4.92E2,4.69E2,2.3E1,1.89E2,2.8E2,1.1E1,1.2E1,9E0,1.8E2,1.74E2,1.06E2],"tree_param":{"num_deleted":"0","num_feature":"8","num_nodes":"11","size_leaf_vector":"1"}},{"base_weights":[4.359027E-4,3.7995458E-2,-4.51194E-1,8.865434E-2,-2.357299E-2,-5.6163186E-1,-4.4212365E-3,1.8578033E-3,3.932913E-3,4.1542432E-4,-2.60774E-3,-1.2569613E-2,-2.2266252E-2],"categories":[],"categories_nodes":[],"categories_segments":[],"categories_sizes":[],"default_left":[0,0,0,0,0,0,0,0,0,0,0,0,0],"id":6,"left_children":[1,3,5,7,9,11,-1,-1,-1,-1,-1,-1,-1],"loss_changes":[8.42473E0,1.4339008E0,1.2987189E0,2.5260532E-1,4.3006814E-1,5.5074215E-1,0E0,0E0,0E0,0E0,0E0,0E0,0E0],"parents":[2147483647,0,0,1,1,2,2,3,3,4,4,5,5],"right_children":[2,4,6,8,10,12,-1,-1,-1,-1,-1,-1,-1],"split_conditions":[4.3692186E-1,6.98017E-1,6.735E1,7.187E1,1.0726147E0,1.3770057E0,-4.4212365E-3,1.8578033E-3,3.932913E-3,4.1542432E-4,-2.60774E-3,-1.2569613E-2,-2.2266252E-2],"split_indices":[2,5,4,4,5,5,0,0,0,0,0,0,0],"split_type":[0,0,0,0,0,0,0,0,0,0,0,0,0],"sum_hessian":[4.97E2,4.59E2,3.8E1,2.52E2,2.07E2,2.8E1,1E1,1.29E2,1.23E2,1.26E2,8.1E1,1.2E1,1.6E1],"tree_param":{"num_deleted":"0","num_feature":"8","num_nodes":"13","size_leaf_vector":"1"}},{"base_weights":[8.912421E-4,2.9783208E-2,-5.6103057E-1,5.9665393E-2,-9.263608E-2,-7.867079E-3,-2.6712159E-2,2.182161E-3,-6.1643277E-3,-1.6739757E-3,-6.3262633E-3],"categories":[],"categories_nodes":[],"categories_segments":[],"categories_sizes":[],"default_left":[0,0,0,0,0,0,0,0,0,0,0],"id":7,"left_children":[1,3,5,7,9,-1,-1,-1,-1,-1,-1],"loss_changes":[8.01113E0,1.7196926E0,1.9655485E0,7.1781087E-1,3.7966228E-1,0E0,0E0,0E0,0E0,0E0,0E0],"parents":[2147483647,0,0,1,1,2,2,3,3,4,4],"right_children":[2,4,6,8,10,-1,-1,-1,-1,-1,-1],"split_conditions":[2.4945278E0,1.0726147E0,9.094563E0,2.3922775E0,2.1170456E0,-7.867079E-3,-2.6712159E-2,2.182161E-3,-6.1643277E-3,-1.6739757E-3,-6.3262633E-3],"split_indices":[0,5,1,0,0,0,0,0,0,0,0],"split_type":[0,0,0,0,0,0,0,0,0,0,0],"sum_hessian":[4.94E2,4.7E2,2.4E1,3.78E2,9.2E1,1.1E1,1.3E1,3.67E2,1.1E1,6.6E1,2.6E1],"tree_param":{"num_deleted":"0","num_feature":"8","num_nodes":"11","size_leaf_vector":"1"}},{"base_weights":[1.0161464E-3,3.0479487E-2,-5.6471264E-1,8.764788E-2,-2.325438E-2,-9.138077E-3,-2.585427E-2,3.253358E-3,7.9651095E-4,1.4985091E-4,-3.1318304E-3],"categories":[],"categories_nodes":[],"categories_segments":[],"categories_sizes":[],"default_left":[0,0,0,0,0,0,0,0,0,0,0],"id":8,"left_children":[1,3,5,7,9,-1,-1,-1,-1,-1,-1],"loss_changes":[8.125184E0,1.4276069E0,1.5313687E0,1.7642128E-1,4.909875E-1,0E0,0E0,0E0,0E0,0E0,0E0],"parents":[2147483647,0,0,1,1,2,2,3,3,4,4],"right_children":[2,4,6,8,10,-1,-1,-1,-1,-1,-1],"split_conditions":[2.4945278E0,6.04627E-1,9.453162E0,2.1118689E0,2.1170456E0,-9.138077E-3,-2.585427E-2,3.253358E-3,7.9651095E-4,1.4985091E-4,-3.1318304E-3],"split_indices":[0,5,1,0,0,0,0,0,0,0,0],"split_type":[0,0,0,0,0,0,0,0,0,0,0],"sum_hessian":[4.88E2,4.64E2,2.4E1,2.25E2,2.39E2,1.1E1,1.3E1,1.87E2,3.8E1,1.73E2,6.6E1],"tree_param":{"num_deleted":"0","num_feature":"8","num_nodes":"11","size_leaf_vector":"1"}},{"base_weights":[-1.7224263E-3,1.5451762E-2,-2.400971E-2,5.246904E-2,-1.22001246E-1,3.024057E-3,3.3102345E-4,-2.9079467E-3,-1.1556997E-2],"categories":[],"categories_nodes":[],"categories_segments":[],"categories_sizes":[],"default_left":[0,0,0,0,0,0,0,0,0],"id":9,"left_children":[1,3,-1,5,7,-1,-1,-1,-1],"loss_changes":[6.2109885E0,2.4267876E0,0E0,6.454083E-1,7.512363E-1,0E0,0E0,0E0,0E0],"parents":[2147483647,0,0,1,1,3,3,4,4],"right_children":[2,4,-1,6,8,-1,-1,-1,-1],"split_conditions":[1.1413957E1,1.0726147E0,-2.400971E-2,5.131579E-1,1.5013924E0,3.024057E-3,3.3102345E-4,-2.9079467E-3,-1.1556997E-2],"split_indices":[1,5,0,5,5,0,0,0,0],"split_type":[0,0,0,0,0,0,0,0,0],"sum_hessian":[4.88E2,4.77E2,1.1E1,3.76E2,1.01E2,1.91E2,1.85E2,8.9E1,1.2E1],"tree_param":{"num_deleted":"0","num_feature":"8","num_nodes":"9","size_leaf_vector":"1"}},{"base_weights":[1.1459122E-3,3.6735322E-2,-4.2396227E-1,6.709769E-2,-2.5660712E-2,-2.2526346E-1,-2.343287E-2,2.9137824E-3,1.3002435E-3,1.7743754E-4,-4.6863863E-3,-9.782754E-3,-5.2624526E-3],"categories":[],"categories_nodes":[],"categories_segments":[],"categories_sizes":[],"default_left":[0,0,0,0,0,0,0,0,0,0,0,0,0],"id":10,"left_children":[1,3,5,7,9,11,-1,-1,-1,-1,-1,-1,-1],"loss_changes":[7.468218E0,8.653816E-1,2.2173E0,1.8495154E-1,5.5525017E-1,9.3482494E-2,0E0,0E0,0E0,0E0,0E0,0E0,0E0],"parents":[2147483647,0,0,1,1,2,2,3,3,4,4,5,5],"right_children":[2,4,6,8,10,12,-1,-1,-1,-1,-1,-1,-1],"split_conditions":[4.3692186E-1,8.3250885E0,1.2607971E1,6.272723E-2,2.2200441E0,2.316117E0,-2.343287E-2,2.9137824E-3,1.3002435E-3,1.7743754E-4,-4.6863863E-3,-9.782754E-3,-5.2624526E-3],"split_indices":[2,3,3,2,0,0,0,0,0,0,0,0,0],"split_type":[0,0,0,0,0,0,0,0,0,0,0,0,0],"sum_hessian":[4.94E2,4.56E2,3.8E1,3.07E2,1.49E2,2.3E1,1.5E1,1.66E2,1.41E2,1.18E2,3.1E1,1E1,1.3E1],"tree_param":{"num_deleted":"0","num_feature":"8","num_nodes":"13","size_leaf_vector":"1"}},{"base_weights":[3.1159148E-3,1.7307496E-2,-2.4425108E-2,-4.9580455E-2,6.54419E-2,-1.1033766E-3,-9.519291E-3,1.3548832E-3,3.4006867E-3],"categories":[],"categories_nodes":[],"categories_segments":[],"categories_sizes":[],"default_left":[0,0,0,0,0,0,0,0,0],"id":11,"left_children":[1,3,-1,5,7,-1,-1,-1,-1],"loss_changes":[5.3184667E0,1.5723937E0,0E0,7.653648E-1,2.608117E-1,0E0,0E0,0E0,0E0],"parents":[2147483647,0,0,1,1,3,3,4,4],"right_children":[2,4,-1,6,8,-1,-1,-1,-1],"split_conditions":[1.4203664E1,6.956E1,-2.4425108E-2,1.2314836E1,7.278E1,-1.1033766E-3,-9.519291E-3,1.3548832E-3,3.4006867E-3],"split_indices":[3,4,0,3,4,0,0,0,0],"split_type":[0,0,0,0,0,0,0,0,0],"sum_hessian":[4.97E2,4.88E2,9E0,2.04E2,2.84E2,1.92E2,1.2E1,1.78E2,1.06E2],"tree_param":{"num_deleted":"0","num_feature":"8","num_nodes":"9","size_leaf_vector":"1"}},{"base_weights":[1.0733693E-3,1.6757142E-2,-2.4100067E-2,4.8849523E-2,-1.0705017E-1,2.4234024E-3,-4.6490825E-4,-7.239407E-3,-1.2003874E-3],"categories":[],"categories_nodes":[],"categories_segments":[],"categories_sizes":[],"default_left":[0,0,0,0,0,0,0,0,0],"id":12,"left_children":[1,3,-1,5,7,-1,-1,-1,-1],"loss_changes":[5.7271705E0,1.9148513E0,0E0,6.2789845E-1,7.9895806E-1,0E0,0E0,0E0,0E0],"parents":[2147483647,0,0,1,1,3,3,4,4],"right_children":[2,4,-1,6,8,-1,-1,-1,-1],"split_conditions":[1.4203664E1,1.0726147E0,-2.4100067E-2,8.3250885E0,6.735E1,2.4234024E-3,-4.6490825E-4,-7.239407E-3,-1.2003874E-3],"split_indices":[3,5,0,3,4,0,0,0,0],"split_type":[0,0,0,0,0,0,0,0,0],"sum_hessian":[4.92E2,4.82E2,1E1,3.83E2,9.9E1,2.72E2,1.11E2,3.7E1,6.2E1],"tree_param":{"num_deleted":"0","num_feature":"8","num_nodes":"9","size_leaf_vector":"1"}},{"base_weights":[2.0935712E-3,1.7456323E-2,-2.135794E-2,4.879537E-2,-1.0753927E-1,-1.850002E-4,2.577011E-3,-6.792803E-3,-1.6521781E-3],"categories":[],"categories_nodes":[],"categories_segments":[],"categories_sizes":[],"default_left":[0,0,0,0,0,0,0,0,0],"id":13,"left_children":[1,3,-1,5,7,-1,-1,-1,-1],"loss_changes":[4.969953E0,1.8799925E0,0E0,6.4376765E-1,5.465747E-1,0E0,0E0,0E0,0E0],"parents":[2147483647,0,0,1,1,3,3,4,4],"right_children":[2,4,-1,6,8,-1,-1,-1,-1],"split_conditions":[1.1413957E1,1.0726147E0,-2.135794E-2,6.945E1,6.735E1,-1.850002E-4,2.577011E-3,-6.792803E-3,-1.6521781E-3],"split_indices":[1,5,0,4,4,0,0,0,0],"split_type":[0,0,0,0,0,0,0,0,0],"sum_hessian":[4.91E2,4.8E2,1.1E1,3.84E2,9.6E1,1.38E2,2.46E2,3.4E1,6.2E1],"tree_param":{"num_deleted":"0","num_feature":"8","num_nodes":"9","size_leaf_vector":"1"}},{"base_weights":[-3.601689E-4,3.0890737E-2,-3.8074318E-1,5.6430466E-2,-2.6256466E-2,-1.9579303E-1,-2.1999223E-2,2.4716358E-3,1.1482249E-3,6.822191E-4,-2.4631403E-3,-1.5452954E-3,-1.144123E-2],"categories":[],"categories_nodes":[],"categories_segments":[],"categories_sizes":[],"default_left":[0,0,0,0,0,0,0,0,0,0,0,0,0],"id":14,"left_children":[1,3,5,7,9,11,-1,-1,-1,-1,-1,-1,-1],"loss_changes":[5.812733E0,6.593722E-1,2.0045042E0,1.2668198E-1,3.2849786E-1,5.25741E-1,0E0,0E0,0E0,0E0,0E0,0E0,0E0],"parents":[2147483647,0,0,1,1,2,2,3,3,4,4,5,5],"right_children":[2,4,6,8,10,12,-1,-1,-1,-1,-1,-1,-1],"split_conditions":[4.3692186E-1,8.471524E0,1.2607971E1,6.272723E-2,8.44E0,7.99E0,-2.1999223E-2,2.4716358E-3,1.1482249E-3,6.822191E-4,-2.4631403E-3,-1.5452954E-3,-1.144123E-2],"split_indices":[2,3,3,2,6,6,0,0,0,0,0,0,0],"split_type":[0,0,0,0,0,0,0,0,0,0,0,0,0],"sum_hessian":[4.88E2,4.51E2,3.7E1,3.12E2,1.39E2,2.3E1,1.4E1,1.6E2,1.52E2,7.1E1,6.8E1,1.2E1,1.1E1],"tree_param":{"num_deleted":"0","num_feature":"8","num_nodes":"13","size_leaf_vector":"1"}},{"base_weights":[-2.515781E-3,2.1069191E-2,-4.4568467E-1,4.9040023E-2,-3.9797146E-2,-4.579284E-3,-1.9879438E-2,1.2618316E-3,2.8532993E-3,-9.220291E-5,-5.1229214E-3],"categories":[],"categories_nodes":[],"categories_segments":[],"categories_sizes":[],"default_left":[0,0,0,0,0,0,0,0,0,0,0],"id":15,"left_children":[1,3,5,7,9,-1,-1,-1,-1,-1,-1],"loss_changes":[5.197348E0,8.0256736E-1,1.2498727E0,1.2390882E-1,6.427324E-1,0E0,0E0,0E0,0E0,0E0,0E0],"parents":[2147483647,0,0,1,1,2,2,3,3,4,4],"right_children":[2,4,6,8,10,-1,-1,-1,-1,-1,-1],"split_conditions":[2.4945278E0,8.471524E0,1.21020775E1,1.049E1,2.2200441E0,-4.579284E-3,-1.9879438E-2,1.2618316E-3,2.8532993E-3,-9.220291E-5,-5.1229214E-3],"split_indices":[0,3,3,6,0,0,0,0,0,0,0],"split_type":[0,0,0,0,0,0,0,0,0,0,0],"sum_hessian":[4.96E2,4.71E2,2.5E1,3.23E2,1.48E2,9E0,1.6E1,2.57E2,6.6E1,1.13E2,3.5E1],"tree_param":{"num_deleted":"0","num_feature":"8","num_nodes":"11","size_leaf_vector":"1"}},{"base_weights":[1.7333843E-3,3.1953253E-2,-3.2620496E-1,4.3307222E-2,-1.980899E-2,-2.2096238E-1,-1.962665E-2,2.811828E-3,1.074978E-3,-4.0666685E-3,4.1720178E-4,-3.6920113E-3,-1.2217623E-2],"categories":[],"categories_nodes":[],"categories_segments":[],"categories_sizes":[],"default_left":[0,0,0,0,0,0,0,0,0,0,0,0,0],"id":16,"left_children":[1,3,5,7,9,11,-1,-1,-1,-1,-1,-1,-1],"loss_changes":[4.831502E0,2.634742E-1,1.1696911E0,1.5854007E-1,2.794023E-1,4.8497486E-1,0E0,0E0,0E0,0E0,0E0,0E0,0E0],"parents":[2147483647,0,0,1,1,2,2,3,3,4,4,5,5],"right_children":[2,4,6,8,10,12,-1,-1,-1,-1,-1,-1,-1],"split_conditions":[2.401979E0,2.1170456E0,1.1413957E1,4.4728956E0,6.510806E0,8.1E0,-1.962665E-2,2.811828E-3,1.074978E-3,-4.0666685E-3,4.1720178E-4,-3.6920113E-3,-1.2217623E-2],"split_indices":[0,0,1,1,1,6,0,0,0,0,0,0,0],"split_type":[0,0,0,0,0,0,0,0,0,0,0,0,0],"sum_hessian":[4.88E2,4.47E2,4.1E1,3.67E2,8E1,3E1,1.1E1,6.9E1,2.98E2,1.9E1,6.1E1,1.8E1,1.2E1],"tree_param":{"num_deleted":"0","num_feature":"8","num_nodes":"13","size_leaf_vector":"1"}},{"base_weights":[-7.1991957E-4,1.2651453E-2,-2.0917784E-2,6.437436E-2,-4.529077E-2,2.4939417E-3,-3.3009055E-5,-1.0733779E-3,-9.132721E-3],"categories":[],"categories_nodes":[],"categories_segments":[],"categories_sizes":[],"default_left":[0,0,0,0,0,0,0,0,0],"id":17,"left_children":[1,3,-1,5,7,-1,-1,-1,-1],"loss_changes":[4.290534E0,1.4577453E0,0E0,2.1241796E-1,6.5128356E-1,0E0,0E0,0E0,0E0],"parents":[2147483647,0,0,1,1,3,3,4,4],"right_children":[2,4,-1,6,8,-1,-1,-1,-1],"split_conditions":[1.4203664E1,6.98017E-1,-2.0917784E-2,8.780463E0,1.022E1,2.4939417E-3,-3.3009055E-5,-1.0733779E-3,-9.132721E-3],"split_indices":[3,5,0,3,6,0,0,0,0],"split_type":[0,0,0,0,0,0,0,0,0],"sum_hessian":[4.96E2,4.86E2,1E1,2.57E2,2.29E2,2.16E2,4.1E1,2.18E2,1.1E1],"tree_param":{"num_deleted":"0","num_feature":"8","num_nodes":"9","size_leaf_vector":"1"}},{"base_weights":[-1.4161334E-3,2.8082859E-2,-3.728977E-1,4.001915E-2,-3.6995415E-2,-1.9369401E-2,-2.8316438E-1,1.4286919E-3,-4.0050833E-3,1.3014954E-4,-3.4711156E-3,-3.7693542E-3,-1.6366415E-2],"categories":[],"categories_nodes":[],"categories_segments":[],"categories_sizes":[],"default_left":[0,0,0,0,0,0,0,0,0,0,0,0,0],"id":18,"left_children":[1,3,5,7,9,-1,11,-1,-1,-1,-1,-1,-1],"loss_changes":[5.380898E0,3.530288E-1,6.836405E-1,2.5191826E-1,2.0400468E-1,0E0,9.43043E-1,0E0,0E0,0E0,0E0,0E0,0E0],"parents":[2147483647,0,0,1,1,2,2,3,3,4,4,6,6],"right_children":[2,4,6,8,10,-1,12,-1,-1,-1,-1,-1,-1],"split_conditions":[4.3692186E-1,3.7033087E-1,5.58E0,3.86E1,8.74E0,-1.9369401E-2,8.47E0,1.4286919E-3,-4.0050833E-3,1.3014954E-4,-3.4711156E-3,-3.7693542E-3,-1.6366415E-2],"split_indices":[2,2,6,7,6,0,6,0,0,0,0,0,0],"split_type":[0,0,0,0,0,0,0,0,0,0,0,0,0],"sum_hessian":[4.9E2,4.54E2,3.6E1,3.84E2,7E1,1E1,2.6E1,3.75E2,9E0,4.4E1,2.6E1,1.5E1,1.1E1],"tree_param":{"num_deleted":"0","num_feature":"8","num_nodes":"13","size_leaf_vector":"1"}},{"base_weights":[-8.2194415E-4,2.8321346E-2,-3.532399E-1,3.519271E-2,-4.650793E-3,-1.8571015E-1,-1.9253917E-2,1.4761749E-3,-9.1389404E-4,-1.5667215E-3,-1.0337763E-2],"categories":[],"categories_nodes":[],"categories_segments":[],"categories_sizes":[],"default_left":[0,0,0,0,0,0,0,0,0,0,0],"id":19,"left_children":[1,3,5,7,-1,9,-1,-1,-1,-1,-1],"loss_changes":[4.991923E0,5.267217E-1,1.4618702E0,2.8259355E-1,0E0,3.9338833E-1,0E0,0E0,0E0,0E0,0E0],"parents":[2147483647,0,0,1,1,2,2,3,3,5,5],"right_children":[2,4,6,8,-1,10,-1,-1,-1,-1,-1],"split_conditions":[4.3692186E-1,2.403286E0,2.4780805E0,3.7033087E-1,-4.650793E-3,7.99E0,-1.9253917E-2,1.4761749E-3,-9.1389404E-4,-1.5667215E-3,-1.0337763E-2],"split_indices":[2,0,0,2,0,6,0,0,0,0,0],"split_type":[0,0,0,0,0,0,0,0,0,0,0],"sum_hessian":[4.85E2,4.48E2,3.7E1,4.31E2,1.7E1,2.2E1,1.5E1,3.71E2,6E1,1.1E1,1.1E1],"tree_param":{"num_deleted":"0","num_feature":"8","num_nodes":"11","size_leaf_vector":"1"}},{"base_weights":[2.7204207E-3,2.8339159E-2,-3.1437162E-1,6.7586474E-2,-1.0813533E-2,-1.7375657E-1,-1.6425688E-2,2.6754604E-3,1.446925E-3,1.609553E-4,-4.8332135E-3,-2.472609E-3,-9.670335E-3],"categories":[],"categories_nodes":[],"categories_segments":[],"categories_sizes":[],"default_left":[0,0,0,0,0,0,0,0,0,0,0,0,0],"id":20,"left_children":[1,3,5,7,9,11,-1,-1,-1,-1,-1,-1,-1],"loss_changes":[3.9268517E0,6.901151E-1,9.4759727E-1,7.311857E-2,4.9236095E-1,2.4411106E-1,0E0,0E0,0E0,0E0,0E0,0E0,0E0],"parents":[2147483647,0,0,1,1,2,2,3,3,4,4,5,5],"right_children":[2,4,6,8,10,12,-1,-1,-1,-1,-1,-1,-1],"split_conditions":[4.3692186E-1,6.3226974E-1,2.4780805E0,1.9391873E0,2.275249E0,1.2799525E0,-1.6425688E-2,2.6754604E-3,1.446925E-3,1.609553E-4,-4.8332135E-3,-2.472609E-3,-9.670335E-3],"split_indices":[2,5,0,0,0,5,0,0,0,0,0,0,0],"split_type":[0,0,0,0,0,0,0,0,0,0,0,0,0],"sum_hessian":[4.84E2,4.48E2,3.6E1,2.24E2,2.24E2,2.1E1,1.5E1,1.35E2,8.9E1,2.01E2,2.3E1,1.2E1,9E0],"tree_param":{"num_deleted":"0","num_feature":"8","num_nodes":"13","size_leaf_vector":"1"}},{"base_weights":[2.5632875E-3,-1.7169796E-2,1.2791852E-2,2.149308E-2,-9.504793E-3,1.9810472E-3,-5.4033834E-4],"categories":[],"categories_nodes":[],"categories_segments":[],"categories_sizes":[],"default_left":[0,0,0,0,0,0,0],"id":21,"left_children":[1,-1,3,5,-1,-1,-1],"loss_changes":[2.6331215E0,0E0,1.26383E0,7.022557E-1,0E0,0E0,0E0],"parents":[2147483647,0,0,2,2,3,3],"right_children":[2,-1,4,6,-1,-1,-1],"split_conditions":[4.57E0,-1.7169796E-2,1.4908601E0,6.04627E-1,-9.504793E-3,1.9810472E-3,-5.4033834E-4],"split_indices":[6,0,5,5,0,0,0],"split_type":[0,0,0,0,0,0,0],"sum_hessian":[4.86E2,9E0,4.77E2,4.64E2,1.3E1,2.28E2,2.36E2],"tree_param":{"num_deleted":"0","num_feature":"8","num_nodes":"7","size_leaf_vector":"1"}},{"base_weights":[2.0594238E-3,2.4761787E-2,-2.9731405E-1,-0E0,7.70026E-2,-2.0323972E-1,-1.580052E-2,-2.761105E-3,3.6874186E-4,2.7363538E-3,7.0703404E-6,-1.1168372E-2,-3.517831E-3],"categories":[],"categories_nodes":[],"categories_segments":[],"categories_sizes":[],"default_left":[0,0,0,0,0,0,0,0,0,0,0,0,0],"id":22,"left_children":[1,3,5,7,9,11,-1,-1,-1,-1,-1,-1,-1],"loss_changes":[3.2913408E0,5.839162E-1,5.7970643E-1,2.96757E-1,7.9986215E-2,2.9327512E-1,0E0,0E0,0E0,0E0,0E0,0E0,0E0],"parents":[2147483647,0,0,1,1,2,2,3,3,4,4,5,5],"right_children":[2,4,6,8,10,12,-1,-1,-1,-1,-1,-1,-1],"split_conditions":[4.3692186E-1,7.182E1,1.0505016E1,4.8912377E0,2.2860156E-1,6.6649666E0,-1.580052E-2,-2.761105E-3,3.6874186E-4,2.7363538E-3,7.0703404E-6,-1.1168372E-2,-3.517831E-3],"split_indices":[2,4,1,1,2,1,0,0,0,0,0,0,0],"split_type":[0,0,0,0,0,0,0,0,0,0,0,0,0],"sum_hessian":[4.85E2,4.51E2,3.4E1,3.06E2,1.45E2,2.3E1,1.1E1,3.6E1,2.7E2,1.32E2,1.3E1,9E0,1.4E1],"tree_param":{"num_deleted":"0","num_feature":"8","num_nodes":"13","size_leaf_vector":"1"}},{"base_weights":[-2.9145519E-3,1.6074058E-2,-3.747E-1,-2.8037246E-2,4.572538E-2,-1.5349152E-2,-6.596149E-3,-5.210212E-4,-4.757792E-3,8.1582874E-4,2.580882E-3],"categories":[],"categories_nodes":[],"categories_segments":[],"categories_sizes":[],"default_left":[0,0,0,0,0,0,0,0,0,0,0],"id":23,"left_children":[1,3,5,7,9,-1,-1,-1,-1,-1,-1],"loss_changes":[3.5051334E0,6.1682004E-1,3.7824678E-1,2.6434267E-1,1.9359803E-1,0E0,0E0,0E0,0E0,0E0,0E0],"parents":[2147483647,0,0,1,1,2,2,3,3,4,4],"right_children":[2,4,6,8,10,-1,-1,-1,-1,-1,-1],"split_conditions":[2.4945278E0,6.956E1,4.06E1,2.401979E0,7.278E1,-1.5349152E-2,-6.596149E-3,-5.210212E-4,-4.757792E-3,8.1582874E-4,2.580882E-3],"split_indices":[0,4,7,0,4,0,0,0,0,0,0],"split_type":[0,0,0,0,0,0,0,0,0,0,0],"sum_hessian":[4.95E2,4.71E2,2.4E1,1.89E2,2.82E2,1.5E1,9E0,1.72E2,1.7E1,1.76E2,1.06E2],"tree_param":{"num_deleted":"0","num_feature":"8","num_nodes":"11","size_leaf_vector":"1"}},{"base_weights":[1.8616465E-3,1.3251334E-2,-1.5739383E-2,3.5506602E-2,-7.4976854E-2,1.7078874E-3,-1.3345467E-4,-6.5461122E-3,-1.8807572E-3],"categories":[],"categories_nodes":[],"categories_segments":[],"categories_sizes":[],"default_left":[0,0,0,0,0,0,0,0,0],"id":24,"left_children":[1,3,-1,5,7,-1,-1,-1,-1],"loss_changes":[2.7030156E0,9.3818575E-1,0E0,2.609252E-1,1.992063E-1,0E0,0E0,0E0,0E0],"parents":[2147483647,0,0,1,1,3,3,4,4],"right_children":[2,4,-1,6,8,-1,-1,-1,-1],"split_conditions":[1.1413957E1,1.0726147E0,-1.5739383E-2,7.4550724E-1,4.5970488E0,1.7078874E-3,-1.3345467E-4,-6.5461122E-3,-1.8807572E-3],"split_indices":[1,5,0,5,1,0,0,0,0],"split_type":[0,0,0,0,0,0,0,0,0],"sum_hessian":[4.89E2,4.78E2,1.1E1,3.82E2,9.6E1,2.67E2,1.15E2,1.1E1,8.5E1],"tree_param":{"num_deleted":"0","num_feature":"8","num_nodes":"9","size_leaf_vector":"1"}},{"base_weights":[-1.1574515E-3,2.3028346E-2,-3.0090415E-1,3.3519078E-2,-6.0285162E-2,-1.6342954E-1,-1.4878802E-2,1.3501907E-3,-8.674432E-4,1.2942038E-3,-5.101548E-3,-1.365859E-3,-9.088515E-3],"categories":[],"categories_nodes":[],"categories_segments":[],"categories_sizes":[],"default_left":[0,0,0,0,0,0,0,0,0,0,0,0,0],"id":25,"left_children":[1,3,5,7,9,11,-1,-1,-1,-1,-1,-1,-1],"loss_changes":[3.60453E0,4.0088135E-1,7.8061986E-1,2.0000699E-1,5.006503E-1,2.756763E-1,0E0,0E0,0E0,0E0,0E0,0E0,0E0],"parents":[2147483647,0,0,1,1,2,2,3,3,4,4,5,5],"right_children":[2,4,6,8,10,12,-1,-1,-1,-1,-1,-1,-1],"split_conditions":[4.3692186E-1,2.2200441E0,2.4780805E0,3.7033087E-1,8.47E0,7.99E0,-1.4878802E-2,1.3501907E-3,-8.674432E-4,1.2942038E-3,-5.101548E-3,-1.365859E-3,-9.088515E-3],"split_indices":[2,0,0,2,6,6,0,0,0,0,0,0,0],"split_type":[0,0,0,0,0,0,0,0,0,0,0,0,0],"sum_hessian":[4.96E2,4.59E2,3.7E1,4.08E2,5.1E1,2E1,1.7E1,3.6E2,4.8E1,2.5E1,2.6E1,1E1,1E1],"tree_param":{"num_deleted":"0","num_feature":"8","num_nodes":"13","size_leaf_vector":"1"}},{"base_weights":[4.5633476E-4,1.7866699E-2,-3.235974E-1,3.218558E-2,-2.310025E-2,-1.4430929E-2,-3.3058096E-3,8.307774E-4,3.0426092E-3,5.6129665E-4,-2.560606E-3],"categories":[],"categories_nodes":[],"categories_segments":[],"categories_sizes":[],"default_left":[0,0,0,0,0,0,0,0,0,0,0],"id":26,"left_children":[1,3,5,7,9,-1,-1,-1,-1,-1,-1],"loss_changes":[2.7809653E0,2.755121E-1,6.56523E-1,1.3768679E-1,2.750581E-1,0E0,0E0,0E0,0E0,0E0,0E0],"parents":[2147483647,0,0,1,1,2,2,3,3,4,4],"right_children":[2,4,6,8,10,-1,-1,-1,-1,-1,-1],"split_conditions":[2.4945278E0,2.9E1,4.16E1,1.104E1,2.1260757E0,-1.4430929E-2,-3.3058096E-3,8.307774E-4,3.0426092E-3,5.6129665E-4,-2.560606E-3],"split_indices":[0,7,7,6,0,0,0,0,0,0,0],"split_type":[0,0,0,0,0,0,0,0,0,0,0],"sum_hessian":[4.94E2,4.69E2,2.5E1,3.48E2,1.21E2,1.6E1,9E0,3.15E2,3.3E1,7E1,5.1E1],"tree_param":{"num_deleted":"0","num_feature":"8","num_nodes":"11","size_leaf_vector":"1"}},{"base_weights":[-0E0,1.0709267E-2,-1.6492678E-2,4.009689E-2,-4.610949E-2,1.8415434E-3,8.236426E-4,8.410407E-5,-3.3775747E-3],"categories":[],"categories_nodes":[],"categories_segments":[],"categories_sizes":[],"default_left":[0,0,0,0,0,0,0,0,0],"id":27,"left_children":[1,3,-1,5,7,-1,-1,-1,-1],"loss_changes":[2.674325E0,8.051303E-1,0E0,7.580006E-2,4.6642083E-1,0E0,0E0,0E0,0E0],"parents":[2147483647,0,0,1,1,3,3,4,4],"right_children":[2,4,-1,6,8,-1,-1,-1,-1],"split_conditions":[1.4203664E1,8.471524E0,-1.6492678E-2,6.0207567E0,8.47E0,1.8415434E-3,8.236426E-4,8.410407E-5,-3.3775747E-3],"split_indices":[3,3,0,3,6,0,0,0,0],"split_type":[0,0,0,0,0,0,0,0,0],"sum_hessian":[4.92E2,4.82E2,1E1,3.18E2,1.64E2,1.48E2,1.7E2,8.9E1,7.5E1],"tree_param":{"num_deleted":"0","num_feature":"8","num_nodes":"9","size_leaf_vector":"1"}},{"base_weights":[-7.906411E-4,9.065449E-3,-1.4119414E-2,2.19361E-2,-3.8769852E-2,2.1537598E-3,3.7636043E-4,-5.398025E-3,-1.8044449E-4],"categories":[],"categories_nodes":[],"categories_segments":[],"categories_sizes":[],"default_left":[0,0,0,0,0,0,0,0,0],"id":28,"left_children":[1,3,-1,5,7,-1,-1,-1,-1],"loss_changes":[2.148839E0,3.0021757E-1,0E0,1.7491442E-1,4.328003E-1,0E0,0E0,0E0,0E0],"parents":[2147483647,0,0,1,1,3,3,4,4],"right_children":[2,4,-1,6,8,-1,-1,-1,-1],"split_conditions":[1.1413957E1,3.09E1,-1.4119414E-2,4.4662714E0,6.3991637E0,2.1537598E-3,3.7636043E-4,-5.398025E-3,-1.8044449E-4],"split_indices":[1,7,0,1,1,0,0,0,0],"split_type":[0,0,0,0,0,0,0,0,0],"sum_hessian":[4.99E2,4.88E2,1.1E1,3.85E2,1.03E2,7.2E1,3.13E2,2.1E1,8.2E1],"tree_param":{"num_deleted":"0","num_feature":"8","num_nodes":"9","size_leaf_vector":"1"}},{"base_weights":[1.9477538E-3,3.1851802E-2,-1.08237885E-1,-6.2992373E-3,5.2984226E-2,-2.1408431E-1,-3.638885E-2,1.3411442E-4,-3.6763537E-3,1.1794342E-3,2.465833E-3,-4.0757894E-3,-1.1306084E-2,-2.1486268E-3,4.2784302E-3],"categories":[],"categories_nodes":[],"categories_segments":[],"categories_sizes":[],"default_left":[0,0,0,0,0,0,0,0,0,0,0,0,0,0,0],"id":29,"left_children":[1,3,5,7,9,11,13,-1,-1,-1,-1,-1,-1,-1,-1],"loss_changes":[1.5772706E0,3.052525E-1,7.6945996E-1,1.5259792E-1,8.996427E-2,4.717443E-1,3.0668467E-1,0E0,0E0,0E0,0E0,0E0,0E0,0E0,0E0],"parents":[2147483647,0,0,1,1,2,2,3,3,4,4,5,5,6,6],"right_children":[2,4,6,8,10,12,14,-1,-1,-1,-1,-1,-1,-1,-1],"split_conditions":[1.0726147E0,6.945E1,6.701E1,3.58E1,7.249E1,1.4908601E0,1.3950096E0,1.3411442E-4,-3.6763537E-3,1.1794342E-3,2.465833E-3,-4.0757894E-3,-1.1306084E-2,-2.1486268E-3,4.2784302E-3],"split_indices":[5,4,4,7,4,5,5,0,0,0,0,0,0,0,0],"split_type":[0,0,0,0,0,0,0,0,0,0,0,0,0,0,0],"sum_hessian":[4.79E2,3.77E2,1.02E2,1.34E2,2.43E2,4.1E1,6.1E1,1.22E2,1.2E1,1.42E2,1.01E2,2.5E1,1.6E1,5.2E1,9E0],"tree_param":{"num_deleted":"0","num_feature":"8","num_nodes":"15","size_leaf_vector":"1"}},{"base_weights":[-1.9930592E-3,3.0303448E-2,-1.1725325E-1,8.250352E-3,6.9551125E-2,-2.0980464E-1,-5.0459616E-2,5.071086E-4,-2.7172738E-3,1.5186671E-3,2.459714E-3,-1.5486862E-3,-9.136216E-3,-2.476559E-3,2.7108507E-3],"categories":[],"categories_nodes":[],"categories_segments":[],"categories_sizes":[],"default_left":[0,0,0,0,0,0,0,0,0,0,0,0,0,0,0],"id":30,"left_children":[1,3,5,7,9,11,13,-1,-1,-1,-1,-1,-1,-1,-1],"loss_changes":[1.8382868E0,3.313348E-1,6.6060865E-1,1.6643983E-1,1.6237795E-2,5.158347E-1,2.1979621E-1,0E0,0E0,0E0,0E0,0E0,0E0,0E0,0E0],"parents":[2147483647,0,0,1,1,2,2,3,3,4,4,5,5,6,6],"right_children":[2,4,6,8,10,12,14,-1,-1,-1,-1,-1,-1,-1,-1],"split_conditions":[1.0726147E0,7.178E1,6.735E1,3.58E1,7.249E1,1.2345266E0,1.3931836E0,5.071086E-4,-2.7172738E-3,1.5186671E-3,2.459714E-3,-1.5486862E-3,-9.136216E-3,-2.476559E-3,2.7108507E-3],"split_indices":[5,4,4,7,4,5,5,0,0,0,0,0,0,0,0],"split_type":[0,0,0,0,0,0,0,0,0,0,0,0,0,0,0],"sum_hessian":[4.93E2,3.85E2,1.08E2,2.47E2,1.38E2,4.5E1,6.3E1,2.29E2,1.8E1,3.1E1,1.07E2,1.4E1,3.1E1,5.3E1,1E1],"tree_param":{"num_deleted":"0","num_feature":"8","num_nodes":"15","size_leaf_vector":"1"}},{"base_weights":[1.2274878E-3,3.085013E-2,-1.04206525E-1,1.0440361E-2,6.712428E-2,-7.9559386E-2,-1.1837298E-2,-2.3856838E-3,7.2368904E-4,2.0421604E-3,3.369779E-3,-4.8251315E-3,-1.3132282E-3],"categories":[],"categories_nodes":[],"categories_segments":[],"categories_sizes":[],"default_left":[0,0,0,0,0,0,0,0,0,0,0,0,0],"id":31,"left_children":[1,3,5,7,9,11,-1,-1,-1,-1,-1,-1,-1],"loss_changes":[1.526252E0,2.8089073E-1,6.737684E-1,2.4340256E-1,1.5988708E-2,2.598704E-1,0E0,0E0,0E0,0E0,0E0,0E0,0E0],"parents":[2147483647,0,0,1,1,2,2,3,3,4,4,5,5],"right_children":[2,4,6,8,10,12,-1,-1,-1,-1,-1,-1,-1],"split_conditions":[1.0726147E0,7.178E1,1.1413957E1,4.8912377E0,7.587E1,6.735E1,-1.1837298E-2,-2.3856838E-3,7.2368904E-4,2.0421604E-3,3.369779E-3,-4.8251315E-3,-1.3132282E-3],"split_indices":[5,4,1,1,4,4,0,0,0,0,0,0,0],"split_type":[0,0,0,0,0,0,0,0,0,0,0,0,0],"sum_hessian":[4.89E2,3.82E2,1.07E2,2.45E2,1.37E2,9.8E1,9E0,3E1,2.15E2,1.24E2,1.3E1,3.5E1,6.3E1],"tree_param":{"num_deleted":"0","num_feature":"8","num_nodes":"13","size_leaf_vector":"1"}},{"base_weights":[5.537146E-4,2.0830609E-2,-2.4843095E-1,2.944351E-2,-4.7150794E-2,-1.2027241E-1,-1.2834608E-2,1.1853271E-3,-6.681411E-4,1.4286381E-3,-4.182502E-3,-7.800056E-4,-7.562296E-3],"categories":[],"categories_nodes":[],"categories_segments":[],"categories_sizes":[],"default_left":[0,0,0,0,0,0,0,0,0,0,0,0,0],"id":32,"left_children":[1,3,5,7,9,11,-1,-1,-1,-1,-1,-1,-1],"loss_changes":[2.4896834E0,2.673946E-1,6.819484E-1,1.4486274E-1,3.842938E-1,2.1154267E-1,0E0,0E0,0E0,0E0,0E0,0E0,0E0],"parents":[2147483647,0,0,1,1,2,2,3,3,4,4,5,5],"right_children":[2,4,6,8,10,12,-1,-1,-1,-1,-1,-1,-1],"split_conditions":[4.3692186E-1,2.2200441E0,2.4780805E0,3.7033087E-1,8.47E0,7.99E0,-1.2834608E-2,1.1853271E-3,-6.681411E-4,1.4286381E-3,-4.182502E-3,-7.800056E-4,-7.562296E-3],"split_indices":[2,0,0,2,6,6,0,0,0,0,0,0,0],"split_type":[0,0,0,0,0,0,0,0,0,0,0,0,0],"sum_hessian":[4.94E2,4.57E2,3.7E1,4.06E2,5.1E1,2E1,1.7E1,3.56E2,5E1,2.4E1,2.7E1,1.1E1,9E0],"tree_param":{"num_deleted":"0","num_feature":"8","num_nodes":"13","size_leaf_vector":"1"}},{"base_weights":[-1.6454821E-3,7.400437E-3,-1.2387862E-2,3.7665363E-2,-1.0785833E-2,7.9659687E-4,2.5013487E-3,-1.5725659E-3,3.199845E-4],"categories":[],"categories_nodes":[],"categories_segments":[],"categories_sizes":[],"default_left":[0,0,0,0,0,0,0,0,0],"id":33,"left_children":[1,3,-1,5,7,-1,-1,-1,-1],"loss_changes":[1.6476508E0,2.5672933E-1,0E0,8.778316E-2,2.2691059E-1,0E0,0E0,0E0,0E0],"parents":[2147483647,0,0,1,1,3,3,4,4],"right_children":[2,4,-1,6,8,-1,-1,-1,-1],"split_conditions":[1.1413957E1,2.1E1,-1.2387862E-2,1.072E1,6.510806E0,7.9659687E-4,2.5013487E-3,-1.5725659E-3,3.199845E-4],"split_indices":[1,7,0,6,1,0,0,0,0],"split_type":[0,0,0,0,0,0,0,0,0],"sum_hessian":[4.76E2,4.65E2,1.1E1,1.75E2,2.9E2,1.32E2,4.3E1,1.03E2,1.87E2],"tree_param":{"num_deleted":"0","num_feature":"8","num_nodes":"9","size_leaf_vector":"1"}},{"base_weights":[-1.2636897E-3,1.7944168E-2,-2.197311E-1,-9.1835216E-2,2.440993E-2,-1.606136E-1,-1.199072E-2,-5.461557E-3,1.3587326E-4,3.9441188E-4,2.027246E-3,-7.027779E-4,-8.314075E-3],"categories":[],"categories_nodes":[],"categories_segments":[],"categories_sizes":[],"default_left":[0,0,0,0,0,0,0,0,0,0,0,0,0],"id":34,"left_children":[1,3,5,7,9,11,-1,-1,-1,-1,-1,-1,-1],"loss_changes":[2.0832212E0,3.2166588E-1,3.3499205E-1,1.8890204E-1,1.9876167E-1,3.79829E-1,0E0,0E0,0E0,0E0,0E0,0E0,0E0],"parents":[2147483647,0,0,1,1,2,2,3,3,4,4,5,5],"right_children":[2,4,6,8,10,12,-1,-1,-1,-1,-1,-1,-1],"split_conditions":[2.403286E0,6.528E1,1.1413957E1,7.9165297E0,7.278E1,6.572E1,-1.199072E-2,-5.461557E-3,1.3587326E-4,3.9441188E-4,2.027246E-3,-7.027779E-4,-8.314075E-3],"split_indices":[0,4,1,1,4,4,0,0,0,0,0,0,0],"split_type":[0,0,0,0,0,0,0,0,0,0,0,0,0],"sum_hessian":[4.95E2,4.55E2,4E1,2.5E1,4.3E2,2.9E1,1.1E1,1.4E1,1.1E1,3.26E2,1.04E2,1.2E1,1.7E1],"tree_param":{"num_deleted":"0","num_feature":"8","num_nodes":"13","size_leaf_vector":"1"}},{"base_weights":[-1.8139482E-3,1.7330898E-2,-2.3249331E-1,3.472465E-2,-2.1197937E-2,-1.21035755E-1,-1.3588545E-2,7.9855724E-4,2.147306E-3,-5.0300905E-3,-2.3908936E-4,-5.6473594E-3,-9.2860934E-4],"categories":[],"categories_nodes":[],"categories_segments":[],"categories_sizes":[],"default_left":[0,0,0,0,0,0,0,0,0,0,0,0,0],"id":35,"left_children":[1,3,5,7,9,11,-1,-1,-1,-1,-1,-1,-1],"loss_changes":[2.1969237E0,3.0745018E-1,7.725532E-1,9.808466E-2,2.589296E-1,1.12685144E-1,0E0,0E0,0E0,0E0,0E0,0E0,0E0],"parents":[2147483647,0,0,1,1,2,2,3,3,4,4,5,5],"right_children":[2,4,6,8,10,12,-1,-1,-1,-1,-1,-1,-1],"split_conditions":[4.3692186E-1,8.471524E0,1.2607971E1,7.297E1,8.635703E0,6.735E1,-1.3588545E-2,7.9855724E-4,2.147306E-3,-5.0300905E-3,-2.3908936E-4,-5.6473594E-3,-9.2860934E-4],"split_indices":[2,3,3,4,3,4,0,0,0,0,0,0,0],"split_type":[0,0,0,0,0,0,0,0,0,0,0,0,0],"sum_hessian":[4.96E2,4.58E2,3.8E1,3.16E2,1.42E2,2.4E1,1.4E1,2.4E2,7.6E1,1.3E1,1.29E2,1.5E1,9E0],"tree_param":{"num_deleted":"0","num_feature":"8","num_nodes":"13","size_leaf_vector":"1"}},{"base_weights":[5.7988736E-4,1.9194957E-2,-2.3066287E-1,4.4563852E-2,-1.1284024E-2,-1.56447E-1,-1.1587183E-2,1.754417E-3,8.98944E-4,-3.3047365E-3,-4.239937E-6,-1.4259375E-3,-8.3012935E-3],"categories":[],"categories_nodes":[],"categories_segments":[],"categories_sizes":[],"default_left":[0,0,0,0,0,0,0,0,0,0,0,0,0],"id":36,"left_children":[1,3,5,7,9,11,-1,-1,-1,-1,-1,-1,-1],"loss_changes":[2.087902E0,3.4893858E-1,3.1952333E-1,3.728977E-2,2.0375553E-1,2.4996632E-1,0E0,0E0,0E0,0E0,0E0,0E0,0E0],"parents":[2147483647,0,0,1,1,2,2,3,3,4,4,5,5],"right_children":[2,4,6,8,10,12,-1,-1,-1,-1,-1,-1,-1],"split_conditions":[4.3692186E-1,6.98017E-1,1.4908601E0,6.272723E-2,4.8912377E0,4.4050694E-1,-1.1587183E-2,1.754417E-3,8.98944E-4,-3.3047365E-3,-4.239937E-6,-1.4259375E-3,-8.3012935E-3],"split_indices":[2,5,5,2,1,2,0,0,0,0,0,0,0],"split_type":[0,0,0,0,0,0,0,0,0,0,0,0,0],"sum_hessian":[4.86E2,4.5E2,3.6E1,2.46E2,2.04E2,2.3E1,1.3E1,1.56E2,9E1,2.2E1,1.82E2,1.1E1,1.2E1],"tree_param":{"num_deleted":"0","num_feature":"8","num_nodes":"13","size_leaf_vector":"1"}},{"base_weights":[-1.9162482E-3,1.0883732E-2,-2.6537862E-1,3.017973E-2,-3.0620322E-2,-3.814024E-3,-1.3659177E-2,6.327705E-4,2.07554E-3,-6.8942104E-3,-5.599303E-4],"categories":[],"categories_nodes":[],"categories_segments":[],"categories_sizes":[],"default_left":[0,0,0,0,0,0,0,0,0,0,0],"id":37,"left_children":[1,3,5,7,9,-1,-1,-1,-1,-1,-1],"loss_changes":[1.6831651E0,3.7981898E-1,5.1267815E-1,1.1470878E-1,3.586479E-1,0E0,0E0,0E0,0E0,0E0,0E0],"parents":[2147483647,0,0,1,1,2,2,3,3,4,4],"right_children":[2,4,6,8,10,-1,-1,-1,-1,-1,-1],"split_conditions":[1.2314836E1,8.471524E0,1.0505016E1,7.297E1,4.741115E0,-3.814024E-3,-1.3659177E-2,6.327705E-4,2.07554E-3,-6.8942104E-3,-5.599303E-4],"split_indices":[3,3,1,4,1,0,0,0,0,0,0],"split_type":[0,0,0,0,0,0,0,0,0,0,0],"sum_hessian":[4.97E2,4.74E2,2.3E1,3.24E2,1.5E2,1.2E1,1.1E1,2.47E2,7.7E1,1E1,1.4E2],"tree_param":{"num_deleted":"0","num_feature":"8","num_nodes":"11","size_leaf_vector":"1"}},{"base_weights":[-1.6928284E-3,1.5381713E-2,-1.9766515E-1,2.559608E-2,-2.8603835E-2,-6.774194E-2,-1.1464679E-2,1.3997462E-3,4.6789335E-4,-2.200978E-3,1.6791346E-3,-5.6226826E-3,1.4487994E-4],"categories":[],"categories_nodes":[],"categories_segments":[],"categories_sizes":[],"default_left":[0,0,0,0,0,0,0,0,0,0,0,0,0],"id":38,"left_children":[1,3,5,7,9,11,-1,-1,-1,-1,-1,-1,-1],"loss_changes":[1.6750703E0,2.0629844E-1,7.988553E-1,7.168254E-2,2.7262157E-1,1.7306192E-1,0E0,0E0,0E0,0E0,0E0,0E0,0E0],"parents":[2147483647,0,0,1,1,2,2,3,3,4,4,5,5],"right_children":[2,4,6,8,10,12,-1,-1,-1,-1,-1,-1,-1],"split_conditions":[2.403286E0,9.331197E0,1.2116158E1,6.0207567E0,8.3007765E0,9.078356E0,-1.1464679E-2,1.3997462E-3,4.6789335E-4,-2.200978E-3,1.6791346E-3,-5.6226826E-3,1.4487994E-4],"split_indices":[0,3,3,3,1,3,0,0,0,0,0,0,0],"split_type":[0,0,0,0,0,0,0,0,0,0,0,0,0],"sum_hessian":[4.99E2,4.59E2,4E1,3.73E2,8.6E1,2.2E1,1.8E1,1.44E2,2.29E2,5.8E1,2.8E1,9E0,1.3E1],"tree_param":{"num_deleted":"0","num_feature":"8","num_nodes":"13","size_leaf_vector":"1"}},{"base_weights":[4.60852E-3,2.1543577E-2,-2.0243573E-1,4.8725598E-2,6.377618E-4,-1.1450687E-2,-1.421054E-1,1.7681282E-3,2.298785E-4,1.1234886E-3,-5.598512E-4,-6.7316234E-4,-8.4382715E-3],"categories":[],"categories_nodes":[],"categories_segments":[],"categories_sizes":[],"default_left":[0,0,0,0,0,0,0,0,0,0,0,0,0],"id":39,"left_children":[1,3,5,7,9,-1,11,-1,-1,-1,-1,-1,-1],"loss_changes":[1.6760361E0,2.505828E-1,3.0955875E-1,4.474333E-2,1.5335153E-1,0E0,3.6668628E-1,0E0,0E0,0E0,0E0,0E0,0E0],"parents":[2147483647,0,0,1,1,2,2,3,3,4,4,6,6],"right_children":[2,4,6,8,10,-1,12,-1,-1,-1,-1,-1,-1],"split_conditions":[4.3692186E-1,5.131579E-1,5.58E0,1.6008396E-1,8.32E0,-1.1450687E-2,7.99E0,1.7681282E-3,2.298785E-4,1.1234886E-3,-5.598512E-4,-6.7316234E-4,-8.4382715E-3],"split_indices":[2,5,6,2,6,0,6,0,0,0,0,0,0],"split_type":[0,0,0,0,0,0,0,0,0,0,0,0,0],"sum_hessian":[4.79E2,4.43E2,3.6E1,1.92E2,2.51E2,1E1,2.6E1,1.68E2,2.4E1,8.7E1,1.64E2,1.3E1,1.3E1],"tree_param":{"num_deleted":"0","num_feature":"8","num_nodes":"13","size_leaf_vector":"1"}},{"base_weights":[-2.2753219E-3,1.5460897E-2,-2.0829856E-1,3.1474497E-2,-1.7043527E-2,-1.02739826E-1,-1.2105568E-2,1.3525822E-3,5.044988E-4,-6.213797E-3,-1.3436213E-4,-7.3580514E-3,-8.214771E-4],"categories":[],"categories_nodes":[],"categories_segments":[],"categories_sizes":[],"default_left":[0,0,0,0,0,0,0,0,0,0,0,0,0],"id":40,"left_children":[1,3,5,7,9,11,-1,-1,-1,-1,-1,-1,-1],"loss_changes":[1.8034765E0,2.3628636E-1,6.64549E-1,4.8019797E-2,3.3083692E-1,2.2484592E-1,0E0,0E0,0E0,0E0,0E0,0E0,0E0],"parents":[2147483647,0,0,1,1,2,2,3,3,4,4,5,5],"right_children":[2,4,6,8,10,12,-1,-1,-1,-1,-1,-1,-1],"split_conditions":[4.3692186E-1,8.3250885E0,1.2607971E1,1.1336646E-1,4.741115E0,6.4712763E0,-1.2105568E-2,1.3525822E-3,5.044988E-4,-6.213797E-3,-1.3436213E-4,-7.3580514E-3,-8.214771E-4],"split_indices":[2,3,3,2,1,1,0,0,0,0,0,0,0],"split_type":[0,0,0,0,0,0,0,0,0,0,0,0,0],"sum_hessian":[4.92E2,4.53E2,3.9E1,3.04E2,1.49E2,2.4E1,1.5E1,1.84E2,1.2E2,1E1,1.39E2,9E0,1.5E1],"tree_param":{"num_deleted":"0","num_feature":"8","num_nodes":"13","size_leaf_vector":"1"}},{"base_weights":[3.561297E-3,1.8596811E-2,-1.8840729E-1,2.396477E-2,-1.2245174E-2,-2.5824872E-1,-3.6204092E-3,8.7793893E-4,-2.6862213E-4,-4.865002E-3,3.035371E-4,-1.036058E-2,-6.1850725E-3],"categories":[],"categories_nodes":[],"categories_segments":[],"categories_sizes":[],"default_left":[0,0,0,0,0,0,0,0,0,0,0,0,0],"id":41,"left_children":[1,3,5,7,9,11,-1,-1,-1,-1,-1,-1,-1],"loss_changes":[1.3964794E0,7.4851334E-2,1.7548692E-1,3.89504E-2,2.0047735E-1,5.4446697E-2,0E0,0E0,0E0,0E0,0E0,0E0,0E0],"parents":[2147483647,0,0,1,1,2,2,3,3,4,4,5,5],"right_children":[2,4,6,8,10,12,-1,-1,-1,-1,-1,-1,-1],"split_conditions":[4.3692186E-1,3.7174603E-1,3.52E1,3.38E1,3.919695E-1,6.805308E0,-3.6204092E-3,8.7793893E-4,-2.6862213E-4,-4.865002E-3,3.035371E-4,-1.036058E-2,-6.1850725E-3],"split_indices":[2,2,7,7,2,1,0,0,0,0,0,0,0],"split_type":[0,0,0,0,0,0,0,0,0,0,0,0,0],"sum_hessian":[4.85E2,4.5E2,3.5E1,3.84E2,6.6E1,1.8E1,1.7E1,3.51E2,3.3E1,9E0,5.7E1,9E0,9E0],"tree_param":{"num_deleted":"0","num_feature":"8","num_nodes":"13","size_leaf_vector":"1"}},{"base_weights":[1.3780093E-4,1.5907438E-2,-1.8184938E-1,3.8467165E-2,-1.998513E-3,-6.0303807E-2,-1.089959E-2,1.1315678E-3,3.3420578E-3,-5.49916E-4,1.2345376E-3,-5.285466E-3,3.1703222E-4],"categories":[],"categories_nodes":[],"categories_segments":[],"categories_sizes":[],"default_left":[0,0,0,0,0,0,0,0,0,0,0,0,0],"id":42,"left_children":[1,3,5,7,9,11,-1,-1,-1,-1,-1,-1,-1],"loss_changes":[1.4085938E0,1.8395856E-1,7.2097635E-1,4.258302E-2,1.5063661E-1,1.632092E-1,0E0,0E0,0E0,0E0,0E0,0E0,0E0],"parents":[2147483647,0,0,1,1,2,2,3,3,4,4,5,5],"right_children":[2,4,6,8,10,12,-1,-1,-1,-1,-1,-1,-1],"split_conditions":[2.403286E0,6.8683767E0,1.2116158E1,6.6993856E0,8.375951E0,9.078356E0,-1.089959E-2,1.1315678E-3,3.3420578E-3,-5.49916E-4,1.2345376E-3,-5.285466E-3,3.1703222E-4],"split_indices":[0,3,3,3,1,3,0,0,0,0,0,0,0],"split_type":[0,0,0,0,0,0,0,0,0,0,0,0,0],"sum_hessian":[4.92E2,4.53E2,3.9E1,2.01E2,2.52E2,2.2E1,1.7E1,1.91E2,1E1,1.84E2,6.8E1,9E0,1.3E1],"tree_param":{"num_deleted":"0","num_feature":"8","num_nodes":"13","size_leaf_vector":"1"}},{"base_weights":[-3.0755287E-3,3.6336684E-3,-9.344249E-3,-3.0167934E-2,2.5352618E-2,-9.046517E-3,-2.9896013E-4,4.2491083E-4,1.7987835E-3],"categories":[],"categories_nodes":[],"categories_segments":[],"categories_sizes":[],"default_left":[0,0,0,0,0,0,0,0,0],"id":43,"left_children":[1,3,-1,5,7,-1,-1,-1,-1],"loss_changes":[9.2537063E-1,3.4438214E-1,0E0,9.4689965E-1,1.03749394E-1,0E0,0E0,0E0,0E0],"parents":[2147483647,0,0,1,1,3,3,4,4],"right_children":[2,4,-1,6,8,-1,-1,-1,-1],"split_conditions":[1.1413957E1,6.923E1,-9.344249E-3,4.8912377E0,7.297E1,-9.046517E-3,-2.9896013E-4,4.2491083E-4,1.7987835E-3],"split_indices":[1,4,0,1,4,0,0,0,0],"split_type":[0,0,0,0,0,0,0,0,0],"sum_hessian":[4.8E2,4.69E2,1.1E1,1.83E2,2.86E2,1.4E1,1.69E2,2.04E2,8.2E1],"tree_param":{"num_deleted":"0","num_feature":"8","num_nodes":"9","size_leaf_vector":"1"}},{"base_weights":[-2.7084872E-3,3.6413237E-3,-9.044676E-3,1.3307844E-2,-3.235727E-2,1.9039183E-4,1.5404085E-3,-5.1699243E-3,2.8667686E-5],"categories":[],"categories_nodes":[],"categories_segments":[],"categories_sizes":[],"default_left":[0,0,0,0,0,0,0,0,0],"id":44,"left_children":[1,3,-1,5,7,-1,-1,-1,-1],"loss_changes":[8.6820257E-1,1.666576E-1,0E0,9.5038794E-2,4.3103477E-1,0E0,0E0,0E0,0E0],"parents":[2147483647,0,0,1,1,3,3,4,4],"right_children":[2,4,-1,6,8,-1,-1,-1,-1],"split_conditions":[1.1413957E1,3.09E1,-9.044676E-3,1.06E1,6.3991637E0,1.9039183E-4,1.5404085E-3,-5.1699243E-3,2.8667686E-5],"split_indices":[1,7,0,6,1,0,0,0,0],"split_type":[0,0,0,0,0,0,0,0,0],"sum_hessian":[4.91E2,4.8E2,1.1E1,3.79E2,1.01E2,3.12E2,6.7E1,2.1E1,8E1],"tree_param":{"num_deleted":"0","num_feature":"8","num_nodes":"9","size_leaf_vector":"1"}},{"base_weights":[-4.8722795E-5,1.5503054E-2,-1.8633805E-1,3.6676724E-2,-1.0665762E-2,-8.658783E-2,-1.0885044E-2,1.4165365E-3,-1.0812931E-4,-2.1985867E-3,5.001251E-5,-1.2039657E-4,-5.6329938E-3],"categories":[],"categories_nodes":[],"categories_segments":[],"categories_sizes":[],"default_left":[0,0,0,0,0,0,0,0,0,0,0,0,0],"id":45,"left_children":[1,3,5,7,9,11,-1,-1,-1,-1,-1,-1,-1],"loss_changes":[1.4332713E0,2.5287834E-1,5.5353E-1,7.162458E-2,1.4330867E-1,1.6244686E-1,0E0,0E0,0E0,0E0,0E0,0E0,0E0],"parents":[2147483647,0,0,1,1,2,2,3,3,4,4,5,5],"right_children":[2,4,6,8,10,12,-1,-1,-1,-1,-1,-1,-1],"split_conditions":[4.3692186E-1,6.98017E-1,1.2607971E1,8.780463E0,4.6189737E-2,1.2799525E0,-1.0885044E-2,1.4165365E-3,-1.0812931E-4,-2.1985867E-3,5.001251E-5,-1.2039657E-4,-5.6329938E-3],"split_indices":[2,5,3,3,2,5,0,0,0,0,0,0,0],"split_type":[0,0,0,0,0,0,0,0,0,0,0,0,0],"sum_hessian":[4.93E2,4.55E2,3.8E1,2.52E2,2.03E2,2.3E1,1.5E1,2.15E2,3.7E1,3.6E1,1.67E2,1.2E1,1.1E1],"tree_param":{"num_deleted":"0","num_feature":"8","num_nodes":"13","size_leaf_vector":"1"}},{"base_weights":[-1.9105342E-3,1.1730312E-2,-1.5312749E-1,1.8216744E-2,-1.5333394E-2,-9.423236E-2,-9.435022E-3,4.9104803E-4,3.439733E-3,-2.7584697E-3,3.5517607E-4,-9.175917E-3,-2.2144179E-4],"categories":[],"categories_nodes":[],"categories_segments":[],"categories_sizes":[],"default_left":[0,0,0,0,0,0,0,0,0,0,0,0,0],"id":46,"left_children":[1,3,5,7,9,11,-1,-1,-1,-1,-1,-1,-1],"loss_changes":[1.0250578E0,7.982825E-2,3.206532E-1,9.599239E-2,1.616219E-1,4.7293854E-1,0E0,0E0,0E0,0E0,0E0,0E0,0E0],"parents":[2147483647,0,0,1,1,2,2,3,3,4,4,5,5],"right_children":[2,4,6,8,10,12,-1,-1,-1,-1,-1,-1,-1],"split_conditions":[2.403286E0,2.1170456E0,8.36E0,2.1037984E0,6.510806E0,4.57E0,-9.435022E-3,4.9104803E-4,3.439733E-3,-2.7584697E-3,3.5517607E-4,-9.175917E-3,-2.2144179E-4],"split_indices":[0,0,6,0,1,6,0,0,0,0,0,0,0],"split_type":[0,0,0,0,0,0,0,0,0,0,0,0,0],"sum_hessian":[4.95E2,4.54E2,4.1E1,3.67E2,8.7E1,2.9E1,1.2E1,3.55E2,1.2E1,2.4E1,6.3E1,9E0,2E1],"tree_param":{"num_deleted":"0","num_feature":"8","num_nodes":"13","size_leaf_vector":"1"}},{"base_weights":[-8.846889E-4,2.0690374E-2,-7.745028E-2,4.92651E-3,4.8182584E-2,-8.882493E-3,-5.91961E-2,4.2683247E-4,-1.6605845E-3,1.3909384E-3,2.597845E-3,-1.0443446E-3,-6.107874E-3],"categories":[],"categories_nodes":[],"categories_segments":[],"categories_sizes":[],"default_left":[0,0,0,0,0,0,0,0,0,0,0,0,0],"id":47,"left_children":[1,3,5,7,9,-1,11,-1,-1,-1,-1,-1,-1],"loss_changes":[8.195217E-1,1.6599183E-1,3.80926E-1,1.12887494E-1,2.0190448E-2,0E0,3.427815E-1,0E0,0E0,0E0,0E0,0E0,0E0],"parents":[2147483647,0,0,1,1,2,2,3,3,4,4,6,6],"right_children":[2,4,6,8,10,-1,12,-1,-1,-1,-1,-1,-1],"split_conditions":[1.0726147E0,7.178E1,4.57E0,1.022E1,1.134E1,-8.882493E-3,1.4908601E0,4.2683247E-4,-1.6605845E-3,1.3909384E-3,2.597845E-3,-1.0443446E-3,-6.107874E-3],"split_indices":[5,4,6,6,6,0,5,0,0,0,0,0,0],"split_type":[0,0,0,0,0,0,0,0,0,0,0,0,0],"sum_hessian":[4.95E2,3.86E2,1.09E2,2.46E2,1.4E2,9E0,1E2,2.15E2,3.1E1,1.21E2,1.9E1,8.3E1,1.7E1],"tree_param":{"num_deleted":"0","num_feature":"8","num_nodes":"13","size_leaf_vector":"1"}},{"base_weights":[-2.1883764E-3,1.2648592E-2,-1.7312013E-1,-1.4528982E-2,2.7780693E-2,-2.2386377E-1,-7.310186E-4,-5.725414E-3,-0E0,1.0620733E-3,-1.0120729E-3,-4.765936E-3,-1.0193013E-2],"categories":[],"categories_nodes":[],"categories_segments":[],"categories_sizes":[],"default_left":[0,0,0,0,0,0,0,0,0,0,0,0,0],"id":48,"left_children":[1,3,5,7,9,11,-1,-1,-1,-1,-1,-1,-1],"loss_changes":[1.2422138E0,1.850867E-1,2.922113E-1,3.753122E-1,8.4859684E-2,1.8518794E-1,0E0,0E0,0E0,0E0,0E0,0E0,0E0],"parents":[2147483647,0,0,1,1,2,2,3,3,4,4,5,5],"right_children":[2,4,6,8,10,12,-1,-1,-1,-1,-1,-1,-1],"split_conditions":[4.3692186E-1,6.932E1,6.735E1,4.8912377E0,3.582616E-1,6.572E1,-7.310186E-4,-5.725414E-3,-0E0,1.0620733E-3,-1.0120729E-3,-4.765936E-3,-1.0193013E-2],"split_indices":[2,4,4,1,2,4,0,0,0,0,0,0,0],"split_type":[0,0,0,0,0,0,0,0,0,0,0,0,0],"sum_hessian":[4.88E2,4.49E2,3.9E1,1.6E2,2.89E2,2.9E1,1E1,1.3E1,1.47E2,2.67E2,2.2E1,1.6E1,1.3E1],"tree_param":{"num_deleted":"0","num_feature":"8","num_nodes":"13","size_leaf_vector":"1"}},{"base_weights":[-2.0833976E-4,2.034508E-2,-7.394623E-2,2.4984028E-2,-7.186326E-2,-8.999024E-2,3.1409306E-3,1.0845652E-3,6.484286E-5,-0E0,-4.5913304E-3,6.185352E-4,-4.0758173E-3],"categories":[],"categories_nodes":[],"categories_segments":[],"categories_sizes":[],"default_left":[0,0,0,0,0,0,0,0,0,0,0,0,0],"id":49,"left_children":[1,3,5,7,9,11,-1,-1,-1,-1,-1,-1,-1],"loss_changes":[7.4434626E-1,1.6294865E-1,2.9449517E-1,7.00773E-2,8.9311175E-2,3.847834E-1,0E0,0E0,0E0,0E0,0E0,0E0,0E0],"parents":[2147483647,0,0,1,1,2,2,3,3,4,4,5,5],"right_children":[2,4,6,8,10,12,-1,-1,-1,-1,-1,-1,-1],"split_conditions":[1.0726147E0,3.58E1,4.2E1,7.6081765E-1,6.4687157E-1,2.17E1,3.1409306E-3,1.0845652E-3,6.484286E-5,-0E0,-4.5913304E-3,6.185352E-4,-4.0758173E-3],"split_indices":[5,7,7,5,5,7,0,0,0,0,0,0,0],"split_type":[0,0,0,0,0,0,0,0,0,0,0,0,0],"sum_hessian":[4.9E2,3.83E2,1.07E2,3.65E2,1.8E1,9.8E1,9E0,2.66E2,9.9E1,9E0,9E0,2.4E1,7.4E1],"tree_param":{"num_deleted":"0","num_feature":"8","num_nodes":"13","size_leaf_vector":"1"}},{"base_weights":[-1.9227859E-3,5.152301E-3,-1.219411E-2,1.7831696E-2,-7.510032E-2,6.6868047E-4,-3.3511051E-3,-1.1576945E-3,-3.5000374E-3],"categories":[],"categories_nodes":[],"categories_segments":[],"categories_sizes":[],"default_left":[0,0,0,0,0,0,0,0,0],"id":50,"left_children":[1,3,-1,5,7,-1,-1,-1,-1],"loss_changes":[1.3012766E0,4.862883E-1,0E0,1.3797891E-1,8.015567E-2,0E0,0E0,0E0,0E0],"parents":[2147483647,0,0,1,1,3,3,4,4],"right_children":[2,4,-1,6,8,-1,-1,-1,-1],"split_conditions":[1.4203664E1,4.12982E-1,-1.219411E-2,2.403286E0,4.3488252E-1,6.6868047E-4,-3.3511051E-3,-1.1576945E-3,-3.5000374E-3],"split_indices":[3,2,0,0,2,0,0,0,0],"split_type":[0,0,0,0,0,0,0,0,0],"sum_hessian":[4.88E2,4.79E2,9E0,4.14E2,6.5E1,4.05E2,9E0,3E1,3.5E1],"tree_param":{"num_deleted":"0","num_feature":"8","num_nodes":"9","size_leaf_vector":"1"}},{"base_weights":[-1.7426815E-3,1.2081471E-2,-1.681292E-1,1.763085E-2,-3.0600121E-2,-1.0642224E-1,-1.1674354E-2,7.0456445E-4,-3.9794447E-4,1.6913333E-3,-3.318716E-3,-8.559238E-3,-6.818825E-4],"categories":[],"categories_nodes":[],"categories_segments":[],"categories_sizes":[],"default_left":[0,0,0,0,0,0,0,0,0,0,0,0,0],"id":51,"left_children":[1,3,5,7,9,11,-1,-1,-1,-1,-1,-1,-1],"loss_changes":[1.1430079E0,1.0802075E-1,4.3481672E-1,4.9847037E-2,3.1131858E-1,3.8394594E-1,0E0,0E0,0E0,0E0,0E0,0E0,0E0],"parents":[2147483647,0,0,1,1,2,2,3,3,4,4,5,5],"right_children":[2,4,6,8,10,12,-1,-1,-1,-1,-1,-1,-1],"split_conditions":[4.3692186E-1,2.2200441E0,8.96E0,3.7033087E-1,8.47E0,5.58E0,-1.1674354E-2,7.0456445E-4,-3.9794447E-4,1.6913333E-3,-3.318716E-3,-8.559238E-3,-6.818825E-4],"split_indices":[2,0,6,2,6,6,0,0,0,0,0,0,0],"split_type":[0,0,0,0,0,0,0,0,0,0,0,0,0],"sum_hessian":[4.95E2,4.57E2,3.8E1,4.05E2,5.2E1,2.9E1,9E0,3.57E2,4.8E1,2.4E1,2.8E1,1E1,1.9E1],"tree_param":{"num_deleted":"0","num_feature":"8","num_nodes":"13","size_leaf_vector":"1"}},{"base_weights":[-4.7323908E-4,1.1668422E-2,-1.372867E-1,1.5760021E-2,-7.032953E-2,-9.596255E-3,-2.9518433E-2,2.9179343E-4,1.4858227E-3,-3.4375624E-3,-6.2402646E-4,-3.476362E-3,3.1425254E-3],"categories":[],"categories_nodes":[],"categories_segments":[],"categories_sizes":[],"default_left":[0,0,0,0,0,0,0,0,0,0,0,0,0],"id":52,"left_children":[1,3,5,7,9,-1,11,-1,-1,-1,-1,-1,-1],"loss_changes":[8.1749916E-1,1.498058E-1,6.76634E-1,8.580513E-2,3.51194E-2,0E0,2.3847872E-1,0E0,0E0,0E0,0E0,0E0,0E0],"parents":[2147483647,0,0,1,1,2,2,3,3,4,4,6,6],"right_children":[2,4,6,8,10,-1,12,-1,-1,-1,-1,-1,-1],"split_conditions":[2.403286E0,3.58E1,3.52E1,7.347E1,6.782E1,-9.596255E-3,4.25E1,2.9179343E-4,1.4858227E-3,-3.4375624E-3,-6.2402646E-4,-3.476362E-3,3.1425254E-3],"split_indices":[0,7,7,4,4,0,7,0,0,0,0,0,0],"split_type":[0,0,0,0,0,0,0,0,0,0,0,0,0],"sum_hessian":[4.9E2,4.5E2,4E1,4.29E2,2.1E1,1.6E1,2.4E1,3.51E2,7.8E1,1.2E1,9E0,1.5E1,9E0],"tree_param":{"num_deleted":"0","num_feature":"8","num_nodes":"13","size_leaf_vector":"1"}},{"base_weights":[1.2206148E-3,1.0613635E-2,-1.0563461E-1,1.7024277E-2,-3.501096E-2,-1.6447927E-1,3.0420353E-3,1.8920057E-4,1.1331239E-3,4.1058433E-4,-2.3171762E-3,-2.8961948E-3,-8.5881315E-3],"categories":[],"categories_nodes":[],"categories_segments":[],"categories_sizes":[],"default_left":[0,0,0,0,0,0,0,0,0,0,0,0,0],"id":53,"left_children":[1,3,5,7,9,11,-1,-1,-1,-1,-1,-1,-1],"loss_changes":[4.9875495E-1,1.3391681E-1,4.746528E-1,7.977172E-2,9.906079E-2,2.2293764E-1,0E0,0E0,0E0,0E0,0E0,0E0,0E0],"parents":[2147483647,0,0,1,1,2,2,3,3,4,4,5,5],"right_children":[2,4,6,8,10,12,-1,-1,-1,-1,-1,-1,-1],"split_conditions":[2.403286E0,3.3E1,4.25E1,2.41E1,8.31E0,2.5205314E0,3.0420353E-3,1.8920057E-4,1.1331239E-3,4.1058433E-4,-2.3171762E-3,-2.8961948E-3,-8.5881315E-3],"split_indices":[0,7,7,7,6,0,0,0,0,0,0,0,0],"split_type":[0,0,0,0,0,0,0,0,0,0,0,0,0],"sum_hessian":[4.99E2,4.59E2,4E1,4.03E2,5.6E1,3.1E1,9E0,2.49E2,1.54E2,2.4E1,3.2E1,1.8E1,1.3E1],"tree_param":{"num_deleted":"0","num_feature":"8","num_nodes":"13","size_leaf_vector":"1"}},{"base_weights":[1.0523383E-3,1.1029102E-2,-2.0483391E-1,2.0563811E-2,-3.1830516E-2,-3.9024123E-3,-8.795693E-3,7.904424E-4,-3.7261522E-3,-3.3508397E-3,-1.7773274E-4],"categories":[],"categories_nodes":[],"categories_segments":[],"categories_sizes":[],"default_left":[0,0,0,0,0,0,0,0,0,0,0],"id":54,"left_children":[1,3,5,7,9,-1,-1,-1,-1,-1,-1],"loss_changes":[9.8375034E-1,1.8742868E-1,1.1019027E-1,1.9209915E-1,1.5381041E-1,0E0,0E0,0E0,0E0,0E0,0E0],"parents":[2147483647,0,0,1,1,2,2,3,3,4,4],"right_children":[2,4,6,8,10,-1,-1,-1,-1,-1,-1],"split_conditions":[2.4945278E0,1.0726147E0,6.562E1,2.3922775E0,1.1256375E0,-3.9024123E-3,-8.795693E-3,7.904424E-4,-3.7261522E-3,-3.3508397E-3,-1.7773274E-4],"split_indices":[0,5,4,0,5,0,0,0,0,0,0],"split_type":[0,0,0,0,0,0,0,0,0,0,0],"sum_hessian":[4.81E2,4.59E2,2.2E1,3.76E2,8.3E1,1E1,1.2E1,3.66E2,1E1,2.2E1,6.1E1],"tree_param":{"num_deleted":"0","num_feature":"8","num_nodes":"11","size_leaf_vector":"1"}},{"base_weights":[-3.1225858E-4,6.7951065E-3,-1.7517668E-1,1.8364934E-2,-1.6782764E-2,-7.1724555E-3,-3.8591574E-3,2.3453898E-4,1.134365E-3,-5.438732E-3,-1.9185363E-4],"categories":[],"categories_nodes":[],"categories_segments":[],"categories_sizes":[],"default_left":[0,0,0,0,0,0,0,0,0,0,0],"id":55,"left_children":[1,3,5,7,9,-1,-1,-1,-1,-1,-1],"loss_changes":[6.085083E-1,1.2750766E-1,3.758228E-2,5.7011843E-2,2.4668683E-1,0E0,0E0,0E0,0E0,0E0,0E0],"parents":[2147483647,0,0,1,1,2,2,3,3,4,4],"right_children":[2,4,6,8,10,-1,-1,-1,-1,-1,-1],"split_conditions":[1.2607971E1,8.471524E0,3.52E1,2.38E1,4.741115E0,-7.1724555E-3,-3.8591574E-3,2.3453898E-4,1.134365E-3,-5.438732E-3,-1.9185363E-4],"split_indices":[3,3,7,7,1,0,0,0,0,0,0],"split_type":[0,0,0,0,0,0,0,0,0,0,0],"sum_hessian":[4.86E2,4.67E2,1.9E1,3.14E2,1.53E2,1E1,9E0,1.89E2,1.25E2,1E1,1.43E2],"tree_param":{"num_deleted":"0","num_feature":"8","num_nodes":"11","size_leaf_vector":"1"}},{"base_weights":[2.2714483E-3,1.2168538E-2,-1.2469465E-1,4.6594804E-3,4.2550102E-2,-8.645257E-3,-7.3570296E-2,-1.338186E-3,3.9681004E-4,1.1986304E-3,2.357087E-3,1.4953754E-3,-4.4838698E-3],"categories":[],"categories_nodes":[],"categories_segments":[],"categories_sizes":[],"default_left":[0,0,0,0,0,0,0,0,0,0,0,0,0],"id":56,"left_children":[1,3,5,7,9,-1,11,-1,-1,-1,-1,-1,-1],"loss_changes":[6.107786E-1,1.0217701E-1,2.43806E-1,1.2600578E-1,1.194945E-2,0E0,2.0535596E-1,0E0,0E0,0E0,0E0,0E0,0E0],"parents":[2147483647,0,0,1,1,2,2,3,3,4,4,6,6],"right_children":[2,4,6,8,10,-1,12,-1,-1,-1,-1,-1,-1],"split_conditions":[4.3692186E-1,7.297E1,6.408417E0,4.8912377E0,7.587E1,-8.645257E-3,7.734017E0,-1.338186E-3,3.9681004E-4,1.1986304E-3,2.357087E-3,1.4953754E-3,-4.4838698E-3],"split_indices":[2,4,1,1,4,0,1,0,0,0,0,0,0],"split_type":[0,0,0,0,0,0,0,0,0,0,0,0,0],"sum_hessian":[4.88E2,4.53E2,3.5E1,3.64E2,8.9E1,9E0,2.6E1,5.1E1,3.13E2,7.6E1,1.3E1,9E0,1.7E1],"tree_param":{"num_deleted":"0","num_feature":"8","num_nodes":"13","size_leaf_vector":"1"}},{"base_weights":[-3.8797967E-3,2.3746789E-3,-1.0748601E-2,1.5818644E-2,-5.094753E-2,6.475493E-4,-2.9106115E-3,2.0471597E-3,-2.0513756E-3],"categories":[],"categories_nodes":[],"categories_segments":[],"categories_sizes":[],"default_left":[0,0,0,0,0,0,0,0,0],"id":57,"left_children":[1,3,-1,5,7,-1,-1,-1,-1],"loss_changes":[9.9797255E-1,3.3911517E-1,0E0,1.6446531E-1,1.3400324E-1,0E0,0E0,0E0,0E0],"parents":[2147483647,0,0,1,1,3,3,4,4],"right_children":[2,4,-1,6,8,-1,-1,-1,-1],"split_conditions":[1.4203664E1,1.0726147E0,-1.0748601E-2,2.3922775E0,5.434893E0,6.475493E-4,-2.9106115E-3,2.0471597E-3,-2.0513756E-3],"split_indices":[3,5,0,0,3,0,0,0,0],"split_type":[0,0,0,0,0,0,0,0,0],"sum_hessian":[4.83E2,4.74E2,9E0,3.79E2,9.5E1,3.65E2,1.4E1,9E0,8.6E1],"tree_param":{"num_deleted":"0","num_feature":"8","num_nodes":"9","size_leaf_vector":"1"}},{"base_weights":[-1.4920029E-3,8.569223E-3,-1.23863235E-1,2.7549876E-2,-1.4519642E-2,-1.659676E-1,1.588602E-4,9.952169E-4,-3.5362114E-4,-2.6502784E-3,1.4587858E-5,-2.1282705E-3,-1.2038892E-2],"categories":[],"categories_nodes":[],"categories_segments":[],"categories_sizes":[],"default_left":[0,0,0,0,0,0,0,0,0,0,0,0,0],"id":58,"left_children":[1,3,5,7,9,11,-1,-1,-1,-1,-1,-1,-1],"loss_changes":[6.0152376E-1,1.9720177E-1,2.0539331E-1,3.03289E-2,2.0534019E-1,5.6528807E-1,0E0,0E0,0E0,0E0,0E0,0E0,0E0],"parents":[2147483647,0,0,1,1,2,2,3,3,4,4,5,5],"right_children":[2,4,6,8,10,12,-1,-1,-1,-1,-1,-1,-1],"split_conditions":[4.3692186E-1,6.98017E-1,4.06E1,3.51E1,4.6189737E-2,1.3770057E0,1.588602E-4,9.952169E-4,-3.5362114E-4,-2.6502784E-3,1.4587858E-5,-2.1282705E-3,-1.2038892E-2],"split_indices":[2,5,7,7,2,5,0,0,0,0,0,0,0],"split_type":[0,0,0,0,0,0,0,0,0,0,0,0,0],"sum_hessian":[4.86E2,4.49E2,3.7E1,2.47E2,2.02E2,2.8E1,9E0,2.29E2,1.8E1,3.7E1,1.65E2,1.9E1,9E0],"tree_param":{"num_deleted":"0","num_feature":"8","num_nodes":"13","size_leaf_vector":"1"}},{"base_weights":[8.456862E-4,1.1790529E-2,-1.3604513E-1,4.0932547E-2,6.311485E-3,-8.734398E-3,-8.9646086E-2,1.6659896E-3,-9.0615073E-4,-4.0487256E-3,4.3028142E-4,1.4751228E-3,-5.1381914E-3],"categories":[],"categories_nodes":[],"categories_segments":[],"categories_sizes":[],"default_left":[0,0,0,0,0,0,0,0,0,0,0,0,0],"id":59,"left_children":[1,3,5,7,9,-1,11,-1,-1,-1,-1,-1,-1],"loss_changes":[7.314528E-1,7.130403E-2,2.1137172E-1,5.1881284E-2,3.4690872E-1,0E0,2.5585657E-1,0E0,0E0,0E0,0E0,0E0,0E0],"parents":[2147483647,0,0,1,1,2,2,3,3,4,4,6,6],"right_children":[2,4,6,8,10,-1,12,-1,-1,-1,-1,-1,-1],"split_conditions":[4.3692186E-1,4.4662714E0,6.4712763E0,1.182E1,4.8912377E0,-8.734398E-3,7.734017E0,1.6659896E-3,-9.0615073E-4,-4.0487256E-3,4.3028142E-4,1.4751228E-3,-5.1381914E-3],"split_indices":[2,1,1,6,1,0,1,0,0,0,0,0,0],"split_type":[0,0,0,0,0,0,0,0,0,0,0,0,0],"sum_hessian":[4.9E2,4.54E2,3.6E1,7.1E1,3.83E2,9E0,2.7E1,6.2E1,9E0,1.9E1,3.64E2,9E0,1.8E1],"tree_param":{"num_deleted":"0","num_feature":"8","num_nodes":"13","size_leaf_vector":"1"}},{"base_weights":[-4.5345078E-5,4.943983E-3,-7.7360384E-3,1.8982675E-2,-2.1862976E-2,2.7095768E-4,1.1056875E-3,6.3464453E-4,-2.435317E-3],"categories":[],"categories_nodes":[],"categories_segments":[],"categories_sizes":[],"default_left":[0,0,0,0,0,0,0,0,0],"id":60,"left_children":[1,3,-1,5,7,-1,-1,-1,-1],"loss_changes":[5.8793974E-1,1.8029426E-1,0E0,4.9512126E-2,3.634916E-1,0E0,0E0,0E0,0E0],"parents":[2147483647,0,0,1,1,3,3,4,4],"right_children":[2,4,-1,6,8,-1,-1,-1,-1],"split_conditions":[1.4203664E1,8.471524E0,-7.7360384E-3,2.38E1,8.53E0,2.7095768E-4,1.1056875E-3,6.3464453E-4,-2.435317E-3],"split_indices":[3,3,0,7,6,0,0,0,0],"split_type":[0,0,0,0,0,0,0,0,0],"sum_hessian":[4.89E2,4.79E2,1E1,3.15E2,1.64E2,1.86E2,1.29E2,9.2E1,7.2E1],"tree_param":{"num_deleted":"0","num_feature":"8","num_nodes":"9","size_leaf_vector":"1"}},{"base_weights":[-6.7770516E-4,4.097103E-3,-7.4883145E-3,2.6152648E-2,-1.9857166E-2,1.0386764E-3,-1.7142191E-4,-3.151162E-4,-4.4619567E-3],"categories":[],"categories_nodes":[],"categories_segments":[],"categories_sizes":[],"default_left":[0,0,0,0,0,0,0,0,0],"id":61,"left_children":[1,3,-1,5,7,-1,-1,-1,-1],"loss_changes":[5.4779965E-1,2.5547147E-1,0E0,4.7234237E-2,2.7209073E-1,0E0,0E0,0E0,0E0],"parents":[2147483647,0,0,1,1,3,3,4,4],"right_children":[2,4,-1,6,8,-1,-1,-1,-1],"split_conditions":[1.4203664E1,6.98017E-1,-7.4883145E-3,8.780463E0,1.003E1,1.0386764E-3,-1.7142191E-4,-3.151162E-4,-4.4619567E-3],"split_indices":[3,5,0,3,6,0,0,0,0],"split_type":[0,0,0,0,0,0,0,0,0],"sum_hessian":[4.93E2,4.83E2,1E1,2.52E2,2.31E2,2.13E2,3.9E1,2.13E2,1.8E1],"tree_param":{"num_deleted":"0","num_feature":"8","num_nodes":"9","size_leaf_vector":"1"}},{"base_weights":[-2.0969813E-3,2.4745304E-3,-7.248523E-3,2.4520136E-2,-2.2266038E-2,1.0108935E-3,-1.7641137E-4,-9.464852E-4,1.2366145E-3],"categories":[],"categories_nodes":[],"categories_segments":[],"categories_sizes":[],"default_left":[0,0,0,0,0,0,0,0,0],"id":62,"left_children":[1,3,-1,5,7,-1,-1,-1,-1],"loss_changes":[5.0668466E-1,2.6472512E-1,0E0,5.187647E-2,9.5215455E-2,0E0,0E0,0E0,0E0],"parents":[2147483647,0,0,1,1,3,3,4,4],"right_children":[2,4,-1,6,8,-1,-1,-1,-1],"split_conditions":[1.4203664E1,6.98017E-1,-7.248523E-3,8.588583E0,1.3950096E0,1.0108935E-3,-1.7641137E-4,-9.464852E-4,1.2366145E-3],"split_indices":[3,5,0,3,5,0,0,0,0],"split_type":[0,0,0,0,0,0,0,0,0],"sum_hessian":[4.95E2,4.85E2,1E1,2.57E2,2.28E2,2.11E2,4.6E1,2.05E2,2.3E1],"tree_param":{"num_deleted":"0","num_feature":"8","num_nodes":"9","size_leaf_vector":"1"}},{"base_weights":[-1.0908516E-3,2.3743963E-2,-2.7949141E-2,1.355676E-2,3.9356794E-2,-1.8676879E-2,-1.2471621E-1,-9.1933325E-4,9.2837645E-4,2.4222033E-3,1.072527E-3,-8.9978677E-4,5.219462E-3,-6.8730856E-3,-4.520291E-4],"categories":[],"categories_nodes":[],"categories_segments":[],"categories_sizes":[],"default_left":[0,0,0,0,0,0,0,0,0,0,0,0,0,0,0],"id":63,"left_children":[1,3,5,7,9,11,13,-1,-1,-1,-1,-1,-1,-1,-1],"loss_changes":[3.2311314E-1,3.8559273E-2,2.053132E-1,9.6791E-2,1.8803373E-2,3.4430304E-1,1.8844685E-1,0E0,0E0,0E0,0E0,0E0,0E0,0E0,0E0],"parents":[2147483647,0,0,1,1,2,2,3,3,4,4,5,5,6,6],"right_children":[2,4,6,8,10,12,14,-1,-1,-1,-1,-1,-1,-1,-1],"split_conditions":[6.98017E-1,7.249E1,1.4908601E0,1.87E1,7.288E1,1.3950096E0,6.576E1,-9.1933325E-4,9.2837645E-4,2.4222033E-3,1.072527E-3,-8.9978677E-4,5.219462E-3,-6.8730856E-3,-4.520291E-4],"split_indices":[5,4,5,7,4,5,4,0,0,0,0,0,0,0,0],"split_type":[0,0,0,0,0,0,0,0,0,0,0,0,0,0,0],"sum_hessian":[4.84E2,2.51E2,2.33E2,1.53E2,9.8E1,2.13E2,2E1,4E1,1.13E2,1.4E1,8.4E1,2.03E2,1E1,1.1E1,9E0],"tree_param":{"num_deleted":"0","num_feature":"8","num_nodes":"15","size_leaf_vector":"1"}},{"base_weights":[2.6334422E-3,1.2395916E-2,-1.17780164E-1,1.6994644E-2,-3.5094485E-2,-7.747225E-3,-7.5563274E-2,4.2771143E-4,2.8947701E-3,-2.2468162E-3,1.2870592E-3,9.3582337E-4,-4.1831257E-3],"categories":[],"categories_nodes":[],"categories_segments":[],"categories_sizes":[],"default_left":[0,0,0,0,0,0,0,0,0,0,0,0,0],"id":64,"left_children":[1,3,5,7,9,-1,11,-1,-1,-1,-1,-1,-1],"loss_changes":[5.666788E-1,9.749605E-2,1.7455906E-1,1.0985547E-1,1.01098806E-1,0E0,1.5426762E-1,0E0,0E0,0E0,0E0,0E0,0E0],"parents":[2147483647,0,0,1,1,2,2,3,3,4,4,6,6],"right_children":[2,4,6,8,10,-1,12,-1,-1,-1,-1,-1,-1],"split_conditions":[4.3692186E-1,4.12982E-1,6.408417E0,3.919695E-1,7.8339286E0,-7.747225E-3,7.816546E0,4.2771143E-4,2.8947701E-3,-2.2468162E-3,1.2870592E-3,9.3582337E-4,-4.1831257E-3],"split_indices":[2,2,1,2,1,0,1,0,0,0,0,0,0],"split_type":[0,0,0,0,0,0,0,0,0,0,0,0,0],"sum_hessian":[4.84E2,4.48E2,3.6E1,4.09E2,3.9E1,9E0,2.7E1,3.89E2,2E1,2.7E1,1.2E1,9E0,1.8E1],"tree_param":{"num_deleted":"0","num_feature":"8","num_nodes":"13","size_leaf_vector":"1"}},{"base_weights":[1.7518501E-3,6.2075877E-3,-6.82912E-3,2.3641966E-2,-1.3083973E-2,9.7001554E-4,-2.8400435E-4,-1.7102643E-4,-5.358128E-3],"categories":[],"categories_nodes":[],"categories_segments":[],"categories_sizes":[],"default_left":[0,0,0,0,0,0,0,0,0],"id":65,"left_children":[1,3,-1,5,7,-1,-1,-1,-1],"loss_changes":[4.6632364E-1,1.6447726E-1,0E0,5.2760422E-2,2.7027646E-1,0E0,0E0,0E0,0E0],"parents":[2147483647,0,0,1,1,3,3,4,4],"right_children":[2,4,-1,6,8,-1,-1,-1,-1],"split_conditions":[1.4203664E1,6.98017E-1,-6.82912E-3,8.780463E0,1.022E1,9.7001554E-4,-2.8400435E-4,-1.7102643E-4,-5.358128E-3],"split_indices":[3,5,0,3,6,0,0,0,0],"split_type":[0,0,0,0,0,0,0,0,0],"sum_hessian":[4.98E2,4.88E2,1E1,2.57E2,2.31E2,2.16E2,4.1E1,2.2E2,1.1E1],"tree_param":{"num_deleted":"0","num_feature":"8","num_nodes":"9","size_leaf_vector":"1"}},{"base_weights":[-1.6464067E-4,3.7028773E-3,-6.6362224E-3,1.3100008E-2,-2.5900645E-2,3.3586775E-4,3.1559695E-3,-7.197115E-3,-2.1293039E-4],"categories":[],"categories_nodes":[],"categories_segments":[],"categories_sizes":[],"default_left":[0,0,0,0,0,0,0,0,0],"id":66,"left_children":[1,3,-1,5,7,-1,-1,-1,-1],"loss_changes":[3.886823E-1,1.3217877E-1,0E0,8.088012E-2,4.2666695E-1,0E0,0E0,0E0,0E0],"parents":[2147483647,0,0,1,1,3,3,4,4],"right_children":[2,4,-1,6,8,-1,-1,-1,-1],"split_conditions":[1.1413957E1,2.1170456E0,-6.6362224E-3,2.1037984E0,4.741115E0,3.3586775E-4,3.1559695E-3,-7.197115E-3,-2.1293039E-4],"split_indices":[1,0,0,0,1,0,0,0,0],"split_type":[0,0,0,0,0,0,0,0,0],"sum_hessian":[4.85E2,4.76E2,9E0,3.62E2,1.14E2,3.51E2,1.1E1,1E1,1.04E2],"tree_param":{"num_deleted":"0","num_feature":"8","num_nodes":"9","size_leaf_vector":"1"}},{"base_weights":[-0E0,6.0669323E-3,-1.4304364E-1,3.1684362E-3,4.926743E-3,-1.3586708E-3,-7.781721E-3,4.6192296E-4,-1.7660906E-3],"categories":[],"categories_nodes":[],"categories_segments":[],"categories_sizes":[],"default_left":[0,0,0,0,0,0,0,0,0],"id":67,"left_children":[1,3,5,7,-1,-1,-1,-1,-1],"loss_changes":[4.2941624E-1,1.9777289E-1,1.8897474E-1,2.9781184E-1,0E0,0E0,0E0,0E0,0E0],"parents":[2147483647,0,0,1,1,2,2,3,3],"right_children":[2,4,6,8,-1,-1,-1,-1,-1],"split_conditions":[1.4908601E0,1.3950096E0,1.0690229E1,1.0726147E0,4.926743E-3,-1.3586708E-3,-7.781721E-3,4.6192296E-4,-1.7660906E-3],"split_indices":[5,5,3,5,0,0,0,0,0],"split_type":[0,0,0,0,0,0,0,0,0],"sum_hessian":[4.97E2,4.77E2,2E1,4.68E2,9E0,1E1,1E1,3.93E2,7.5E1],"tree_param":{"num_deleted":"0","num_feature":"8","num_nodes":"9","size_leaf_vector":"1"}},{"base_weights":[-8.426828E-5,4.4240025E-3,-5.3669987E-3,1.5665457E-2,-3.651932E-2,6.7156326E-4,-6.109857E-4,-4.4548074E-3,-6.919763E-4],"categories":[],"categories_nodes":[],"categories_segments":[],"categories_sizes":[],"default_left":[0,0,0,0,0,0,0,0,0],"id":68,"left_children":[1,3,-1,5,7,-1,-1,-1,-1],"loss_changes":[3.6881065E-1,2.186993E-1,0E0,6.516533E-2,1.5204552E-1,0E0,0E0,0E0,0E0],"parents":[2147483647,0,0,1,1,3,3,4,4],"right_children":[2,4,-1,6,8,-1,-1,-1,-1],"split_conditions":[1.0764335E1,1.0521654E0,-5.3669987E-3,3.38E1,4.5970488E0,6.7156326E-4,-6.109857E-4,-4.4548074E-3,-6.919763E-4],"split_indices":[1,5,0,7,1,0,0,0,0],"split_type":[0,0,0,0,0,0,0,0,0],"sum_hessian":[4.89E2,4.76E2,1.3E1,3.74E2,1.02E2,3.27E2,4.7E1,1.3E1,8.9E1],"tree_param":{"num_deleted":"0","num_feature":"8","num_nodes":"9","size_leaf_vector":"1"}},{"base_weights":[2.7427475E-3,7.3877587E-3,-5.3602033E-3,2.1891462E-2,-1.1948842E-2,9.440428E-4,-1.9310957E-5,-4.224562E-3,7.197969E-5],"categories":[],"categories_nodes":[],"categories_segments":[],"categories_sizes":[],"default_left":[0,0,0,0,0,0,0,0,0],"id":69,"left_children":[1,3,-1,5,7,-1,-1,-1,-1],"loss_changes":[3.8108099E-1,1.3493365E-1,0E0,4.5353785E-2,3.47049E-1,0E0,0E0,0E0,0E0],"parents":[2147483647,0,0,1,1,3,3,4,4],"right_children":[2,4,-1,6,8,-1,-1,-1,-1],"split_conditions":[1.5476166E0,7.4550724E-1,-5.3602033E-3,8.245525E0,4.8912377E0,9.440428E-4,-1.9310957E-5,-4.224562E-3,7.197969E-5],"split_indices":[5,5,0,3,1,0,0,0,0],"split_type":[0,0,0,0,0,0,0,0,0],"sum_hessian":[4.93E2,4.8E2,1.3E1,2.75E2,2.05E2,2.09E2,6.6E1,2.2E1,1.83E2],"tree_param":{"num_deleted":"0","num_feature":"8","num_nodes":"9","size_leaf_vector":"1"}},{"base_weights":[-1.5347928E-3,2.394188E-3,-6.0436293E-3,1.2534068E-2,-3.8404375E-2,7.031029E-4,-2.9695514E-4,-2.1723963E-3,1.8878672E-3],"categories":[],"categories_nodes":[],"categories_segments":[],"categories_sizes":[],"default_left":[0,0,0,0,0,0,0,0,0],"id":70,"left_children":[1,3,-1,5,7,-1,-1,-1,-1],"loss_changes":[3.5324883E-1,1.9390759E-1,0E0,7.5137645E-2,2.578302E-1,0E0,0E0,0E0,0E0],"parents":[2147483647,0,0,1,1,3,3,4,4],"right_children":[2,4,-1,6,8,-1,-1,-1,-1],"split_conditions":[1.4203664E1,1.0726147E0,-6.0436293E-3,8.3250885E0,1.3931836E0,7.031029E-4,-2.9695514E-4,-2.1723963E-3,1.8878672E-3],"split_indices":[3,5,0,3,5,0,0,0,0],"split_type":[0,0,0,0,0,0,0,0,0],"sum_hessian":[4.8E2,4.7E2,1E1,3.77E2,9.3E1,2.66E2,1.11E2,7.2E1,2.1E1],"tree_param":{"num_deleted":"0","num_feature":"8","num_nodes":"9","size_leaf_vector":"1"}},{"base_weights":[-7.6534075E-4,8.413158E-3,-1.0698641E-1,2.3783349E-2,-6.9881594E-3,-1.8833871E-1,-1.9364938E-2,8.6537213E-4,4.8005324E-5,-2.2757414E-3,2.4306586E-4,-2.5412892E-3,-1.0282982E-2,-2.3654788E-3,1.2202398E-3],"categories":[],"categories_nodes":[],"categories_segments":[],"categories_sizes":[],"default_left":[0,0,0,0,0,0,0,0,0,0,0,0,0,0,0],"id":71,"left_children":[1,3,5,7,9,11,13,-1,-1,-1,-1,-1,-1,-1,-1],"loss_changes":[4.7943994E-1,1.0699345E-1,2.7328667E-1,1.3913095E-2,2.0670027E-1,2.7193427E-1,5.962417E-2,0E0,0E0,0E0,0E0,0E0,0E0,0E0,0E0],"parents":[2147483647,0,0,1,1,2,2,3,3,4,4,5,5,6,6],"right_children":[2,4,6,8,10,12,14,-1,-1,-1,-1,-1,-1,-1,-1],"split_conditions":[4.3692186E-1,6.3226974E-1,3.52E1,2.95E1,4.6189737E-2,1.362108E0,4.06E1,8.6537213E-4,4.8005324E-5,-2.2757414E-3,2.4306586E-4,-2.5412892E-3,-1.0282982E-2,-2.3654788E-3,1.2202398E-3],"split_indices":[2,5,7,7,2,5,7,0,0,0,0,0,0,0,0],"split_type":[0,0,0,0,0,0,0,0,0,0,0,0,0,0,0],"sum_hessian":[4.89E2,4.5E2,3.9E1,2.26E2,2.24E2,2E1,1.9E1,1.99E2,2.7E1,4.2E1,1.82E2,1.1E1,9E0,1E1,9E0],"tree_param":{"num_deleted":"0","num_feature":"8","num_nodes":"15","size_leaf_vector":"1"}},{"base_weights":[7.676254E-4,3.7853424E-3,-4.16093E-3,-1.5531388E-2,1.6032793E-2,-6.8492116E-3,-2.0320163E-5,3.0460436E-4,1.564439E-3],"categories":[],"categories_nodes":[],"categories_segments":[],"categories_sizes":[],"default_left":[0,0,0,0,0,0,0,0,0],"id":72,"left_children":[1,3,-1,5,7,-1,-1,-1,-1],"loss_changes":[1.8980552E-1,1.145798E-1,0E0,5.4040784E-1,6.2054478E-2,0E0,0E0,0E0,0E0],"parents":[2147483647,0,0,1,1,3,3,4,4],"right_children":[2,4,-1,6,8,-1,-1,-1,-1],"split_conditions":[1.1413957E1,6.923E1,-4.16093E-3,4.8525968E0,8.03565E0,-6.8492116E-3,-2.0320163E-5,3.0460436E-4,1.564439E-3],"split_indices":[1,4,0,1,1,0,0,0,0],"split_type":[0,0,0,0,0,0,0,0,0],"sum_hessian":[4.95E2,4.84E2,1.1E1,1.87E2,2.97E2,1.3E1,1.74E2,2.47E2,5E1],"tree_param":{"num_deleted":"0","num_feature":"8","num_nodes":"9","size_leaf_vector":"1"}},{"base_weights":[4.5661896E-4,9.03879E-3,-1.04540706E-1,-4.10046E-2,1.1759416E-2,-6.730635E-2,-6.975902E-3,1.6804929E-3,-3.3198798E-3,1.7082986E-3,2.176519E-4,-6.0610147E-3,3.0593653E-4],"categories":[],"categories_nodes":[],"categories_segments":[],"categories_sizes":[],"default_left":[0,0,0,0,0,0,0,0,0,0,0,0,0],"id":73,"left_children":[1,3,5,7,9,11,-1,-1,-1,-1,-1,-1,-1],"loss_changes":[4.4301015E-1,6.1573014E-2,1.4395049E-1,1.3365169E-1,8.814837E-2,2.6273334E-1,0E0,0E0,0E0,0E0,0E0,0E0,0E0],"parents":[2147483647,0,0,1,1,2,2,3,3,4,4,5,5],"right_children":[2,4,6,8,10,12,-1,-1,-1,-1,-1,-1,-1],"split_conditions":[4.3692186E-1,6.518E1,8.9E0,8.33E0,6.715E1,6.38E0,-6.975902E-3,1.6804929E-3,-3.3198798E-3,1.7082986E-3,2.176519E-4,-6.0610147E-3,3.0593653E-4],"split_indices":[2,4,6,6,4,6,0,0,0,0,0,0,0],"split_type":[0,0,0,0,0,0,0,0,0,0,0,0,0],"sum_hessian":[4.94E2,4.57E2,3.7E1,2.3E1,4.34E2,2.8E1,9E0,9E0,1.4E1,4.7E1,3.87E2,1.1E1,1.7E1],"tree_param":{"num_deleted":"0","num_feature":"8","num_nodes":"13","size_leaf_vector":"1"}},{"base_weights":[-2.3005372E-3,5.491878E-3,-9.764369E-2,1.4814766E-2,-1.5035571E-2,-3.1484604E-2,-7.018208E-3,5.576479E-4,-1.2150261E-3,-4.553388E-3,-6.0960152E-5,-4.021404E-3,1.470652E-3],"categories":[],"categories_nodes":[],"categories_segments":[],"categories_sizes":[],"default_left":[0,0,0,0,0,0,0,0,0,0,0,0,0],"id":74,"left_children":[1,3,5,7,9,11,-1,-1,-1,-1,-1,-1,-1],"loss_changes":[3.6501464E-1,8.635781E-2,2.8465393E-1,3.8273707E-2,2.2753204E-1,1.7415774E-1,0E0,0E0,0E0,0E0,0E0,0E0,0E0],"parents":[2147483647,0,0,1,1,2,2,3,3,4,4,5,5],"right_children":[2,4,6,8,10,12,-1,-1,-1,-1,-1,-1,-1],"split_conditions":[4.3692186E-1,8.471524E0,1.2607971E1,4.0989462E-1,8.635703E0,2.316117E0,-7.018208E-3,5.576479E-4,-1.2150261E-3,-4.553388E-3,-6.0960152E-5,-4.021404E-3,1.470652E-3],"split_indices":[2,3,3,2,3,0,0,0,0,0,0,0,0],"split_type":[0,0,0,0,0,0,0,0,0,0,0,0,0],"sum_hessian":[4.88E2,4.51E2,3.7E1,3.11E2,1.4E2,2.4E1,1.3E1,2.98E2,1.3E1,1.3E1,1.27E2,1.1E1,1.3E1],"tree_param":{"num_deleted":"0","num_feature":"8","num_nodes":"13","size_leaf_vector":"1"}},{"base_weights":[-5.9817097E-4,1.1552781E-2,-4.222896E-2,8.998848E-4,3.0403754E-2,-3.1550083E-2,-5.1750448E-3,1.9119236E-4,-1.9563441E-3,8.348126E-4,2.7928324E-3,-1.8527232E-3,1.6689667E-3],"categories":[],"categories_nodes":[],"categories_segments":[],"categories_sizes":[],"default_left":[0,0,0,0,0,0,0,0,0,0,0,0,0],"id":75,"left_children":[1,3,5,7,9,11,-1,-1,-1,-1,-1,-1,-1],"loss_changes":[2.5078127E-1,7.595685E-2,1.3509987E-1,7.365271E-2,3.2566994E-2,2.194486E-1,0E0,0E0,0E0,0E0,0E0,0E0,0E0],"parents":[2147483647,0,0,1,1,2,2,3,3,4,4,5,5],"right_children":[2,4,6,8,10,12,-1,-1,-1,-1,-1,-1,-1],"split_conditions":[1.0521654E0,7.178E1,1.4203664E1,7.137E1,5.39693E-1,1.3950096E0,-5.1750448E-3,1.9119236E-4,-1.9563441E-3,8.348126E-4,2.7928324E-3,-1.8527232E-3,1.6689667E-3],"split_indices":[5,4,3,4,5,5,0,0,0,0,0,0,0],"split_type":[0,0,0,0,0,0,0,0,0,0,0,0,0],"sum_hessian":[4.94E2,3.82E2,1.12E2,2.45E2,1.37E2,1.03E2,9E0,2.27E2,1.8E1,1.27E2,1E1,7.9E1,2.4E1],"tree_param":{"num_deleted":"0","num_feature":"8","num_nodes":"13","size_leaf_vector":"1"}},{"base_weights":[-7.4119173E-4,7.2658127E-3,-9.450874E-2,1.2014409E-3,3.3712156E-2,-1.3048618E-1,2.4987216E-4,-1.4376923E-3,1.3936995E-4,9.0662425E-4,2.2356946E-3,-9.930796E-4,-6.784968E-3],"categories":[],"categories_nodes":[],"categories_segments":[],"categories_sizes":[],"default_left":[0,0,0,0,0,0,0,0,0,0,0,0,0],"id":76,"left_children":[1,3,5,7,9,11,-1,-1,-1,-1,-1,-1,-1],"loss_changes":[3.7324554E-1,7.2121136E-2,1.4706796E-1,5.1338892E-2,1.4408462E-2,2.2219163E-1,0E0,0E0,0E0,0E0,0E0,0E0,0E0],"parents":[2147483647,0,0,1,1,2,2,3,3,4,4,5,5],"right_children":[2,4,6,8,10,12,-1,-1,-1,-1,-1,-1,-1],"split_conditions":[4.3692186E-1,7.31E1,6.735E1,6.518E1,7.587E1,2.4475958E0,2.4987216E-4,-1.4376923E-3,1.3936995E-4,9.0662425E-4,2.2356946E-3,-9.930796E-4,-6.784968E-3],"split_indices":[2,4,4,4,4,0,0,0,0,0,0,0,0],"split_type":[0,0,0,0,0,0,0,0,0,0,0,0,0],"sum_hessian":[4.94E2,4.55E2,3.9E1,3.71E2,8.4E1,2.9E1,1E1,2.3E1,3.48E2,7.3E1,1.1E1,1.3E1,1.6E1],"tree_param":{"num_deleted":"0","num_feature":"8","num_nodes":"13","size_leaf_vector":"1"}},{"base_weights":[8.7235746E-4,4.1524796E-3,-4.988166E-3,2.5710944E-2,-7.0968154E-3,5.562065E-4,5.5441163E-3,6.2854076E-4,-1.2092534E-3],"categories":[],"categories_nodes":[],"categories_segments":[],"categories_sizes":[],"default_left":[0,0,0,0,0,0,0,0,0],"id":77,"left_children":[1,3,-1,5,7,-1,-1,-1,-1],"loss_changes":[2.475625E-1,1.1813794E-1,0E0,2.027575E-1,2.548056E-1,0E0,0E0,0E0,0E0],"parents":[2147483647,0,0,1,1,3,3,4,4],"right_children":[2,4,-1,6,8,-1,-1,-1,-1],"split_conditions":[1.4203664E1,8.32E0,-4.988166E-3,3.82E1,6.8683767E0,5.562065E-4,5.5441163E-3,6.2854076E-4,-1.2092534E-3],"split_indices":[3,6,0,7,3,0,0,0,0],"split_type":[0,0,0,0,0,0,0,0,0],"sum_hessian":[4.95E2,4.85E2,1E1,1.67E2,3.18E2,1.58E2,9E0,1.69E2,1.49E2],"tree_param":{"num_deleted":"0","num_feature":"8","num_nodes":"9","size_leaf_vector":"1"}},{"base_weights":[-1.13912276E-4,7.3902537E-3,-9.804604E-2,2.4959003E-3,2.7486697E-2,-6.3726576E-3,-2.9719523E-3,2.221175E-4,-1.417852E-3,5.220225E-4,2.6165696E-3,2.3741978E-3,-2.6538898E-3],"categories":[],"categories_nodes":[],"categories_segments":[],"categories_sizes":[],"default_left":[0,0,0,0,0,0,0,0,0,0,0,0,0],"id":78,"left_children":[1,3,5,7,9,-1,11,-1,-1,-1,-1,-1,-1],"loss_changes":[3.6253986E-1,4.4012357E-2,3.2373923E-1,7.2967365E-2,5.0825946E-2,0E0,1.0987437E-1,0E0,0E0,0E0,0E0,0E0,0E0],"parents":[2147483647,0,0,1,1,2,2,3,3,4,4,6,6],"right_children":[2,4,6,8,10,-1,12,-1,-1,-1,-1,-1,-1],"split_conditions":[4.3692186E-1,8.375951E0,3.52E1,3.38E1,3.3445933E-1,-6.3726576E-3,9.527984E0,2.221175E-4,-1.417852E-3,5.220225E-4,2.6165696E-3,2.3741978E-3,-2.6538898E-3],"split_indices":[2,1,7,7,2,0,1,0,0,0,0,0,0],"split_type":[0,0,0,0,0,0,0,0,0,0,0,0,0],"sum_hessian":[4.9E2,4.55E2,3.5E1,3.67E2,8.8E1,1.7E1,1.8E1,3.36E2,3.1E1,7.3E1,1.5E1,9E0,9E0],"tree_param":{"num_deleted":"0","num_feature":"8","num_nodes":"13","size_leaf_vector":"1"}},{"base_weights":[-2.0034716E-3,5.1370873E-3,-8.750892E-2,1.8267774E-3,8.318687E-2,-4.031411E-2,-6.0393093E-3,3.4046426E-4,-1.5266674E-3,1.4833346E-3,3.7865033E-3,8.4046944E-4,-3.5040916E-3],"categories":[],"categories_nodes":[],"categories_segments":[],"categories_sizes":[],"default_left":[0,0,0,0,0,0,0,0,0,0,0,0,0],"id":79,"left_children":[1,3,5,7,9,11,-1,-1,-1,-1,-1,-1,-1],"loss_changes":[3.0196568E-1,1.1494281E-1,1.7101464E-1,1.8363954E-1,1.8064424E-2,1.1959491E-1,0E0,0E0,0E0,0E0,0E0,0E0,0E0],"parents":[2147483647,0,0,1,1,2,2,3,3,4,4,5,5],"right_children":[2,4,6,8,10,12,-1,-1,-1,-1,-1,-1,-1],"split_conditions":[4.3692186E-1,1.3770057E0,1.5013924E0,1.0726147E0,1.8844154E0,4.4050694E-1,-6.0393093E-3,3.4046426E-4,-1.5266674E-3,1.4833346E-3,3.7865033E-3,8.4046944E-4,-3.5040916E-3],"split_indices":[2,5,5,5,0,2,0,0,0,0,0,0,0],"split_type":[0,0,0,0,0,0,0,0,0,0,0,0,0],"sum_hessian":[4.91E2,4.53E2,3.8E1,4.35E2,1.8E1,2.6E1,1.2E1,3.7E2,6.5E1,9E0,9E0,1.3E1,1.3E1],"tree_param":{"num_deleted":"0","num_feature":"8","num_nodes":"13","size_leaf_vector":"1"}},{"base_weights":[2.6203363E-4,7.990964E-3,-1.020826E-1,4.7051325E-3,8.155622E-2,-1.6780615E-1,-8.386146E-4,4.1475557E-4,-1.3291879E-3,1.0863531E-3,4.2492165E-3,-2.5374172E-3,-8.182787E-3],"categories":[],"categories_nodes":[],"categories_segments":[],"categories_sizes":[],"default_left":[0,0,0,0,0,0,0,0,0,0,0,0,0],"id":80,"left_children":[1,3,5,7,9,11,-1,-1,-1,-1,-1,-1,-1],"loss_changes":[3.8467473E-1,1.0782278E-1,1.6560927E-1,1.6042373E-1,4.0818676E-2,1.2645048E-1,0E0,0E0,0E0,0E0,0E0,0E0,0E0],"parents":[2147483647,0,0,1,1,2,2,3,3,4,4,5,5],"right_children":[2,4,6,8,10,12,-1,-1,-1,-1,-1,-1,-1],"split_conditions":[4.3692186E-1,1.3770057E0,3.52E1,1.0726147E0,3.3445933E-1,2.82E1,-8.386146E-4,4.1475557E-4,-1.3291879E-3,1.0863531E-3,4.2492165E-3,-2.5374172E-3,-8.182787E-3],"split_indices":[2,5,7,5,2,7,0,0,0,0,0,0,0],"split_type":[0,0,0,0,0,0,0,0,0,0,0,0,0],"sum_hessian":[4.89E2,4.55E2,3.4E1,4.36E2,1.9E1,1.8E1,1.6E1,3.71E2,6.5E1,1E1,9E0,9E0,9E0],"tree_param":{"num_deleted":"0","num_feature":"8","num_nodes":"13","size_leaf_vector":"1"}},{"base_weights":[-1.990626E-3,8.638615E-4,-4.5960103E-3,2.3098165E-2,-1.0666669E-2,4.9606775E-4,5.0343922E-3,5.3929887E-4,-1.2931791E-3],"categories":[],"categories_nodes":[],"categories_segments":[],"categories_sizes":[],"default_left":[0,0,0,0,0,0,0,0,0],"id":81,"left_children":[1,3,-1,5,7,-1,-1,-1,-1],"loss_changes":[2.0177925E-1,1.2522712E-1,0E0,1.6776603E-1,2.558547E-1,0E0,0E0,0E0,0E0],"parents":[2147483647,0,0,1,1,3,3,4,4],"right_children":[2,4,-1,6,8,-1,-1,-1,-1],"split_conditions":[1.4203664E1,8.32E0,-4.5960103E-3,3.94E1,6.8683767E0,4.9606775E-4,5.0343922E-3,5.3929887E-4,-1.2931791E-3],"split_indices":[3,6,0,7,3,0,0,0,0],"split_type":[0,0,0,0,0,0,0,0,0],"sum_hessian":[4.97E2,4.87E2,1E1,1.67E2,3.2E2,1.58E2,9E0,1.65E2,1.55E2],"tree_param":{"num_deleted":"0","num_feature":"8","num_nodes":"9","size_leaf_vector":"1"}},{"base_weights":[-3.4823567E-3,4.5654248E-3,-1.0752898E-1,-1.1935854E-2,1.3724888E-2,-1.5659592E-1,4.2536852E-4,-2.764501E-3,3.2362234E-4,5.734775E-4,-1.0103106E-3,-1.2264132E-3,-8.010195E-3],"categories":[],"categories_nodes":[],"categories_segments":[],"categories_sizes":[],"default_left":[0,0,0,0,0,0,0,0,0,0,0,0,0],"id":82,"left_children":[1,3,5,7,9,11,-1,-1,-1,-1,-1,-1,-1],"loss_changes":[4.0967768E-1,6.825027E-2,2.1177474E-1,2.5919625E-1,5.143192E-2,2.6149267E-1,0E0,0E0,0E0,0E0,0E0,0E0,0E0],"parents":[2147483647,0,0,1,1,2,2,3,3,4,4,5,5],"right_children":[2,4,6,8,10,12,-1,-1,-1,-1,-1,-1,-1],"split_conditions":[4.3692186E-1,6.923E1,6.735E1,7.82852E-2,3.582616E-1,2.4475958E0,4.2536852E-4,-2.764501E-3,3.2362234E-4,5.734775E-4,-1.0103106E-3,-1.2264132E-3,-8.010195E-3],"split_indices":[2,4,4,2,2,0,0,0,0,0,0,0,0],"split_type":[0,0,0,0,0,0,0,0,0,0,0,0,0],"sum_hessian":[4.86E2,4.51E2,3.5E1,1.6E2,2.91E2,2.5E1,1E1,3.7E1,1.23E2,2.68E2,2.3E1,1.1E1,1.4E1],"tree_param":{"num_deleted":"0","num_feature":"8","num_nodes":"13","size_leaf_vector":"1"}},{"base_weights":[-1.017513E-3,1.6598632E-3,-4.2457054E-3,3.1680067E-3,-1.4060253E-4,-2.3595553E-3,1.3683818E-4],"categories":[],"categories_nodes":[],"categories_segments":[],"categories_sizes":[],"default_left":[0,0,0,0,0,0,0],"id":83,"left_children":[1,3,-1,-1,5,-1,-1],"loss_changes":[1.743821E-1,8.577407E-2,0E0,0E0,1.5151581E-1,0E0,0E0],"parents":[2147483647,0,0,1,1,4,4],"right_children":[2,4,-1,-1,6,-1,-1],"split_conditions":[1.4203664E1,6.216E1,-4.2457054E-3,3.1680067E-3,6.534E1,-2.3595553E-3,1.3683818E-4],"split_indices":[3,4,0,0,4,0,0],"split_type":[0,0,0,0,0,0,0],"sum_hessian":[4.92E2,4.82E2,1E1,9E0,4.73E2,2.7E1,4.46E2],"tree_param":{"num_deleted":"0","num_feature":"8","num_nodes":"7","size_leaf_vector":"1"}},{"base_weights":[1.3414239E-4,9.623846E-3,-5.2802593E-2,6.856521E-3,3.0037414E-3,-7.9566754E-2,4.416561E-3,3.2508076E-4,-2.0475022E-3,-1.7788747E-3,-6.832144E-3],"categories":[],"categories_nodes":[],"categories_segments":[],"categories_sizes":[],"default_left":[0,0,0,0,0,0,0,0,0,0,0],"id":84,"left_children":[1,3,5,7,-1,9,-1,-1,-1,-1,-1],"loss_changes":[2.4521035E-1,9.3015105E-2,3.749104E-1,8.81027E-2,0E0,2.0296156E-1,0E0,0E0,0E0,0E0,0E0],"parents":[2147483647,0,0,1,1,2,2,3,3,5,5],"right_children":[2,4,6,8,-1,10,-1,-1,-1,-1,-1],"split_conditions":[4.12982E-1,1.3475002E0,4.16E1,3.58E1,3.0037414E-3,4.4084588E-1,4.416561E-3,3.2508076E-4,-2.0475022E-3,-1.7788747E-3,-6.832144E-3],"split_indices":[2,5,7,7,0,2,0,0,0,0,0],"split_type":[0,0,0,0,0,0,0,0,0,0,0],"sum_hessian":[4.9E2,4.16E2,7.4E1,4.03E2,1.3E1,6.5E1,9E0,3.86E2,1.7E1,5.5E1,1E1],"tree_param":{"num_deleted":"0","num_feature":"8","num_nodes":"11","size_leaf_vector":"1"}},{"base_weights":[2.4598655E-3,7.7135134E-3,-6.184615E-2,1.4431754E-2,-2.3305308E-2,-1.403493E-1,5.779729E-3,6.4544886E-4,-1.0080063E-3,1.2823719E-3,-1.5790368E-3,-7.127624E-3,-1.4780717E-3],"categories":[],"categories_nodes":[],"categories_segments":[],"categories_sizes":[],"default_left":[0,0,0,0,0,0,0,0,0,0,0,0,0],"id":85,"left_children":[1,3,5,7,9,11,-1,-1,-1,-1,-1,-1,-1],"loss_changes":[1.6632892E-1,9.550132E-2,7.019405E-1,9.39212E-2,1.2987608E-1,2.0383447E-1,0E0,0E0,0E0,0E0,0E0,0E0,0E0],"parents":[2147483647,0,0,1,1,2,2,3,3,4,4,5,5],"right_children":[2,4,6,8,10,12,-1,-1,-1,-1,-1,-1,-1],"split_conditions":[2.403286E0,1.0856535E0,4.16E1,3.38E1,2.17E1,3.52E1,5.779729E-3,6.4544886E-4,-1.0080063E-3,1.2823719E-3,-1.5790368E-3,-7.127624E-3,-1.4780717E-3],"split_indices":[0,5,7,7,7,7,0,0,0,0,0,0,0],"split_type":[0,0,0,0,0,0,0,0,0,0,0,0,0],"sum_hessian":[4.96E2,4.59E2,3.7E1,3.78E2,8.1E1,2.8E1,9E0,3.38E2,4E1,2.3E1,5.8E1,1.5E1,1.3E1],"tree_param":{"num_deleted":"0","num_feature":"8","num_nodes":"13","size_leaf_vector":"1"}},{"base_weights":[1.366315E-3,8.15562E-3,-8.357568E-2,4.60851E-3,8.1435315E-2,-1.3234594E-1,1.7667804E-3,4.0230586E-4,-1.3354922E-3,1.0045227E-3,4.1648755E-3,-1.5527662E-3,-8.521058E-3],"categories":[],"categories_nodes":[],"categories_segments":[],"categories_sizes":[],"default_left":[0,0,0,0,0,0,0,0,0,0,0,0,0],"id":86,"left_children":[1,3,5,7,9,11,-1,-1,-1,-1,-1,-1,-1],"loss_changes":[2.73949E-1,1.1299711E-1,2.3936914E-1,1.5037663E-1,4.3248534E-2,2.7842882E-1,0E0,0E0,0E0,0E0,0E0,0E0,0E0],"parents":[2147483647,0,0,1,1,2,2,3,3,4,4,5,5],"right_children":[2,4,6,8,10,12,-1,-1,-1,-1,-1,-1,-1],"split_conditions":[4.3692186E-1,1.3475002E0,4.06E1,1.0726147E0,3.3445933E-1,1.3770057E0,1.7667804E-3,4.0230586E-4,-1.3354922E-3,1.0045227E-3,4.1648755E-3,-1.5527662E-3,-8.521058E-3],"split_indices":[2,5,7,5,2,5,0,0,0,0,0,0,0],"split_type":[0,0,0,0,0,0,0,0,0,0,0,0,0],"sum_hessian":[4.78E2,4.43E2,3.5E1,4.23E2,2E1,2.6E1,9E0,3.62E2,6.1E1,1E1,1E1,1.6E1,1E1],"tree_param":{"num_deleted":"0","num_feature":"8","num_nodes":"13","size_leaf_vector":"1"}},{"base_weights":[1.0161299E-3,6.455863E-3,-6.6977814E-2,2.3257127E-2,-2.03568E-3,-8.263359E-3,-7.712865E-3,5.0733483E-4,1.5368237E-3,8.447579E-5,-2.4688088E-3,-4.156116E-3,1.9860722E-3],"categories":[],"categories_nodes":[],"categories_segments":[],"categories_sizes":[],"default_left":[0,0,0,0,0,0,0,0,0,0,0,0,0],"id":87,"left_children":[1,3,5,7,9,11,-1,-1,-1,-1,-1,-1,-1],"loss_changes":[1.8057488E-1,6.560849E-2,3.5600948E-1,2.6655652E-2,1.05715364E-1,2.2869165E-1,0E0,0E0,0E0,0E0,0E0,0E0,0E0],"parents":[2147483647,0,0,1,1,2,2,3,3,4,4,5,5],"right_children":[2,4,6,8,10,12,-1,-1,-1,-1,-1,-1,-1],"split_conditions":[4.3692186E-1,8.32E0,8.96E0,3.3445933E-1,4.12982E-1,5.58E0,-7.712865E-3,5.0733483E-4,1.5368237E-3,8.447579E-5,-2.4688088E-3,-4.156116E-3,1.9860722E-3],"split_indices":[2,6,6,2,2,6,0,0,0,0,0,0,0],"split_type":[0,0,0,0,0,0,0,0,0,0,0,0,0],"sum_hessian":[4.92E2,4.56E2,3.6E1,1.54E2,3.02E2,2.7E1,9E0,1.18E2,3.6E1,2.84E2,1.8E1,1E1,1.7E1],"tree_param":{"num_deleted":"0","num_feature":"8","num_nodes":"13","size_leaf_vector":"1"}},{"base_weights":[8.759645E-4,-3.6479032E-3,3.0463485E-3,2.1915974E-2,-6.787414E-3,5.683837E-4,2.6411314E-3,-2.381336E-5,-5.13913E-3],"categories":[],"categories_nodes":[],"categories_segments":[],"categories_sizes":[],"default_left":[0,0,0,0,0,0,0,0,0],"id":88,"left_children":[1,-1,3,5,7,-1,-1,-1,-1],"loss_changes":[1.1962616E-1,0E0,9.097171E-2,4.129897E-2,2.8992772E-1,0E0,0E0,0E0,0E0],"parents":[2147483647,0,0,2,2,3,3,4,4],"right_children":[2,-1,4,6,8,-1,-1,-1,-1],"split_conditions":[4.57E0,-3.6479032E-3,8.32E0,2.4691525E0,2.403286E0,5.683837E-4,2.6411314E-3,-2.381336E-5,-5.13913E-3],"split_indices":[6,0,6,0,0,0,0,0,0],"split_type":[0,0,0,0,0,0,0,0,0],"sum_hessian":[4.97E2,9E0,4.88E2,1.68E2,3.2E2,1.57E2,1.1E1,3.08E2,1.2E1],"tree_param":{"num_deleted":"0","num_feature":"8","num_nodes":"9","size_leaf_vector":"1"}},{"base_weights":[-9.2440756E-4,1.4718088E-3,-3.8163175E-3,2.9929867E-3,-4.2005564E-4,-2.228749E-3,1.0879277E-4],"categories":[],"categories_nodes":[],"categories_segments":[],"categories_sizes":[],"default_left":[0,0,0,0,0,0,0],"id":89,"left_children":[1,3,-1,-1,5,-1,-1],"loss_changes":[1.408572E-1,8.5288644E-2,0E0,0E0,1.2361971E-1,0E0,0E0],"parents":[2147483647,0,0,1,1,4,4],"right_children":[2,4,-1,-1,6,-1,-1],"split_conditions":[1.4203664E1,6.253E1,-3.8163175E-3,2.9929867E-3,6.528E1,-2.228749E-3,1.0879277E-4],"split_indices":[3,4,0,0,4,0,0],"split_type":[0,0,0,0,0,0,0],"sum_hessian":[4.93E2,4.83E2,1E1,1E1,4.73E2,2.5E1,4.48E2],"tree_param":{"num_deleted":"0","num_feature":"8","num_nodes":"7","size_leaf_vector":"1"}},{"base_weights":[-5.8987405E-4,5.8701537E-3,-6.646076E-2,4.085224E-3,2.6012305E-3,-5.7928986E-3,-3.636812E-2,2.2139685E-4,-1.6662279E-3,7.0222486E-5,-3.9480496E-3],"categories":[],"categories_nodes":[],"categories_segments":[],"categories_sizes":[],"default_left":[0,0,0,0,0,0,0,0,0,0,0],"id":90,"left_children":[1,3,5,7,-1,-1,9,-1,-1,-1,-1],"loss_changes":[2.1011847E-1,5.705579E-2,1.4275399E-1,6.523702E-2,0E0,0E0,1.1854921E-1,0E0,0E0,0E0,0E0],"parents":[2147483647,0,0,1,1,2,2,3,3,6,6],"right_children":[2,4,6,8,-1,-1,10,-1,-1,-1,-1],"split_conditions":[4.3488252E-1,1.0143335E1,6.408417E0,3.58E1,2.6012305E-3,-5.7928986E-3,1.0505016E1,2.2139685E-4,-1.6662279E-3,7.0222486E-5,-3.9480496E-3],"split_indices":[2,1,1,7,0,0,1,0,0,0,0],"split_type":[0,0,0,0,0,0,0,0,0,0,0],"sum_hessian":[4.9E2,4.46E2,4.4E1,4.36E2,1E1,9E0,3.5E1,4.16E2,2E1,2.4E1,1.1E1],"tree_param":{"num_deleted":"0","num_feature":"8","num_nodes":"11","size_leaf_vector":"1"}},{"base_weights":[4.8471434E-4,7.329337E-3,-6.894946E-2,-0E0,2.3210306E-2,-2.6652327E-2,-7.245466E-3,8.080895E-4,-3.8756232E-4,5.855878E-4,1.7643577E-3,-3.7806185E-3,3.3091113E-4],"categories":[],"categories_nodes":[],"categories_segments":[],"categories_sizes":[],"default_left":[0,0,0,0,0,0,0,0,0,0,0,0,0],"id":91,"left_children":[1,3,5,7,9,11,-1,-1,-1,-1,-1,-1,-1],"loss_changes":[2.2861633E-1,5.1792614E-2,2.747683E-1,8.944388E-2,2.060441E-2,1.1588956E-1,0E0,0E0,0E0,0E0,0E0,0E0,0E0],"parents":[2147483647,0,0,1,1,2,2,3,3,4,4,5,5],"right_children":[2,4,6,8,10,12,-1,-1,-1,-1,-1,-1,-1],"split_conditions":[4.3488252E-1,7.182E1,8.96E0,8.32E0,1.134E1,5.58E0,-7.245466E-3,8.080895E-4,-3.8756232E-4,5.855878E-4,1.7643577E-3,-3.7806185E-3,3.3091113E-4],"split_indices":[2,4,6,6,6,6,0,0,0,0,0,0,0],"split_type":[0,0,0,0,0,0,0,0,0,0,0,0,0],"sum_hessian":[4.84E2,4.41E2,4.3E1,3.01E2,1.4E2,3.4E1,9E0,9.7E1,2.04E2,1.21E2,1.9E1,1E1,2.4E1],"tree_param":{"num_deleted":"0","num_feature":"8","num_nodes":"13","size_leaf_vector":"1"}},{"base_weights":[-6.158639E-4,3.6966335E-3,-5.141042E-2,2.0459448E-3,2.6464667E-3,-1.05165966E-1,5.504477E-4,2.5561918E-4,-7.157525E-4,-8.5203757E-4,-6.954757E-3],"categories":[],"categories_nodes":[],"categories_segments":[],"categories_sizes":[],"default_left":[0,0,0,0,0,0,0,0,0,0,0],"id":92,"left_children":[1,3,5,7,-1,9,-1,-1,-1,-1,-1],"loss_changes":[1.09449215E-1,5.642578E-2,1.4625241E-1,6.244897E-2,0E0,1.8405956E-1,0E0,0E0,0E0,0E0,0E0],"parents":[2147483647,0,0,1,1,2,2,3,3,5,5],"right_children":[2,4,6,8,-1,10,-1,-1,-1,-1,-1],"split_conditions":[2.403286E0,1.013225E1,2.5382233E0,9.331197E0,2.6464667E-3,1.02542925E1,5.504477E-4,2.5561918E-4,-7.157525E-4,-8.5203757E-4,-6.954757E-3],"split_indices":[0,1,0,3,0,3,0,0,0,0,0],"split_type":[0,0,0,0,0,0,0,0,0,0,0],"sum_hessian":[4.94E2,4.55E2,3.9E1,4.46E2,9E0,2.2E1,1.7E1,3.6E2,8.6E1,1.3E1,9E0],"tree_param":{"num_deleted":"0","num_feature":"8","num_nodes":"11","size_leaf_vector":"1"}},{"base_weights":[-1.0736765E-3,3.1382276E-3,-4.9835518E-2,-5.833931E-2,6.8557337E-3,2.7035016E-3,-5.4771407E-3,1.618376E-3,-3.913906E-3,7.629111E-5,8.2622987E-4,-3.2324742E-3,1.8033333E-3],"categories":[],"categories_nodes":[],"categories_segments":[],"categories_sizes":[],"default_left":[0,0,0,0,0,0,0,0,0,0,0,0,0],"id":93,"left_children":[1,3,5,7,9,11,-1,-1,-1,-1,-1,-1,-1],"loss_changes":[1.0102127E-1,1.00960396E-1,2.4890345E-1,1.7207713E-1,3.4696832E-2,1.4651975E-1,0E0,0E0,0E0,0E0,0E0,0E0,0E0],"parents":[2147483647,0,0,1,1,2,2,3,3,4,4,5,5],"right_children":[2,4,6,8,10,12,-1,-1,-1,-1,-1,-1,-1],"split_conditions":[2.403286E0,6.528E1,8.36E0,8.33E0,7.31E1,4.57E0,-5.4771407E-3,1.618376E-3,-3.913906E-3,7.629111E-5,8.2622987E-4,-3.2324742E-3,1.8033333E-3],"split_indices":[0,4,6,6,4,6,0,0,0,0,0,0,0],"split_type":[0,0,0,0,0,0,0,0,0,0,0,0,0],"sum_hessian":[4.86E2,4.47E2,3.9E1,2.5E1,4.22E2,2.7E1,1.2E1,9E0,1.6E1,3.41E2,8.1E1,9E0,1.8E1],"tree_param":{"num_deleted":"0","num_feature":"8","num_nodes":"13","size_leaf_vector":"1"}},{"base_weights":[4.3421375E-4,8.634177E-3,-4.4654667E-2,5.37903E-3,7.1406856E-2,-6.5071724E-2,3.280912E-3,2.6674249E-4,-3.266409E-3,3.2039122E-3,1.4884692E-3,-1.4147214E-3,-5.859903E-3],"categories":[],"categories_nodes":[],"categories_segments":[],"categories_sizes":[],"default_left":[0,0,0,0,0,0,0,0,0,0,0,0,0],"id":94,"left_children":[1,3,5,7,9,11,-1,-1,-1,-1,-1,-1,-1],"loss_changes":[1.8073806E-1,8.307244E-2,2.2361168E-1,1.1738684E-1,9.884141E-3,1.5741253E-1,0E0,0E0,0E0,0E0,0E0,0E0,0E0],"parents":[2147483647,0,0,1,1,2,2,3,3,4,4,5,5],"right_children":[2,4,6,8,10,12,-1,-1,-1,-1,-1,-1,-1],"split_conditions":[4.12982E-1,3.919695E-1,4.2E1,3.7174603E-1,6.518379E0,4.4084588E-1,3.280912E-3,2.6674249E-4,-3.266409E-3,3.2039122E-3,1.4884692E-3,-1.4147214E-3,-5.859903E-3],"split_indices":[2,2,7,2,1,2,0,0,0,0,0,0,0],"split_type":[0,0,0,0,0,0,0,0,0,0,0,0,0],"sum_hessian":[4.91E2,4.16E2,7.5E1,3.96E2,2E1,6.6E1,9E0,3.86E2,1E1,9E0,1.1E1,5.6E1,1E1],"tree_param":{"num_deleted":"0","num_feature":"8","num_nodes":"13","size_leaf_vector":"1"}},{"base_weights":[1.0535361E-3,6.3147447E-3,-5.8839504E-2,-4.307147E-3,1.4242003E-2,-1.2383935E-1,8.654266E-3,1.5637578E-4,-3.907329E-3,-7.472676E-4,6.362427E-4,-1.7303382E-3,-6.6588405E-3,2.0136028E-3,-1.5577507E-3],"categories":[],"categories_nodes":[],"categories_segments":[],"categories_sizes":[],"default_left":[0,0,0,0,0,0,0,0,0,0,0,0,0,0,0],"id":95,"left_children":[1,3,5,7,9,11,13,-1,-1,-1,-1,-1,-1,-1,-1],"loss_changes":[1.5287189E-1,3.815659E-2,1.7465799E-1,2.0562766E-1,5.190093E-2,1.0776043E-1,5.866453E-2,0E0,0E0,0E0,0E0,0E0,0E0,0E0,0E0],"parents":[2147483647,0,0,1,1,2,2,3,3,4,4,5,5,6,6],"right_children":[2,4,6,8,10,12,14,-1,-1,-1,-1,-1,-1,-1,-1],"split_conditions":[4.3692186E-1,6.3991637E0,3.52E1,3.15E1,1.67E1,2.82E1,9.527984E0,1.5637578E-4,-3.907329E-3,-7.472676E-4,6.362427E-4,-1.7303382E-3,-6.6588405E-3,2.0136028E-3,-1.5577507E-3],"split_indices":[2,1,7,7,7,7,1,0,0,0,0,0,0,0,0],"split_type":[0,0,0,0,0,0,0,0,0,0,0,0,0,0,0],"sum_hessian":[4.89E2,4.5E2,3.9E1,1.91E2,2.59E2,2E1,1.9E1,1.77E2,1.4E1,3.2E1,2.27E2,1.1E1,9E0,1E1,9E0],"tree_param":{"num_deleted":"0","num_feature":"8","num_nodes":"15","size_leaf_vector":"1"}},{"base_weights":[-1.4253342E-4,4.2767623E-3,-5.1616173E-2,1.9493027E-3,2.7977324E-3,7.798681E-3,-6.597965E-3,8.464435E-6,2.5482664E-3,-1.8539903E-3,1.6669559E-3],"categories":[],"categories_nodes":[],"categories_segments":[],"categories_sizes":[],"default_left":[0,0,0,0,0,0,0,0,0,0,0],"id":96,"left_children":[1,3,5,7,-1,9,-1,-1,-1,-1,-1],"loss_changes":[1.1246992E-1,8.367892E-2,3.580075E-1,5.4715358E-2,0E0,7.98992E-2,0E0,0E0,0E0,0E0,0E0],"parents":[2147483647,0,0,1,1,2,2,3,3,5,5],"right_children":[2,4,6,8,-1,10,-1,-1,-1,-1,-1],"split_conditions":[2.403286E0,2.316117E0,8.36E0,1.013225E1,2.7977324E-3,5.58E0,-6.597965E-3,8.464435E-6,2.5482664E-3,-1.8539903E-3,1.6669559E-3],"split_indices":[0,0,6,1,0,6,0,0,0,0,0],"split_type":[0,0,0,0,0,0,0,0,0,0,0],"sum_hessian":[4.89E2,4.5E2,3.9E1,4.38E2,1.2E1,2.8E1,1.1E1,4.29E2,9E0,1.1E1,1.7E1],"tree_param":{"num_deleted":"0","num_feature":"8","num_nodes":"11","size_leaf_vector":"1"}},{"base_weights":[1.4487144E-3,1.4223321E-2,-1.39653925E-2,-2.3673854E-3,1.7421529E-2,-1.15379736E-1,-1.8084024E-3,2.3553867E-3,4.801737E-4,-8.063928E-3,1.9648323E-4,-2.8790901E-3,1.4026959E-4],"categories":[],"categories_nodes":[],"categories_segments":[],"categories_sizes":[],"default_left":[0,0,0,0,0,0,0,0,0,0,0,0,0],"id":97,"left_children":[1,3,5,-1,7,9,11,-1,-1,-1,-1,-1,-1],"loss_changes":[9.516427E-2,7.273625E-2,2.659908E-1,0E0,3.46836E-2,3.8047975E-1,1.06221E-1,0E0,0E0,0E0,0E0,0E0,0E0],"parents":[2147483647,0,0,1,1,2,2,4,4,5,5,6,6],"right_children":[2,4,6,-1,8,10,12,-1,-1,-1,-1,-1,-1],"split_conditions":[7.4550724E-1,6.545E1,4.8912377E0,-2.3673854E-3,6.715E1,6.919E1,7.8164476E-1,2.3553867E-3,4.801737E-4,-8.063928E-3,1.9648323E-4,-2.8790901E-3,1.4026959E-4],"split_indices":[5,4,1,0,4,4,5,0,0,0,0,0,0],"split_type":[0,0,0,0,0,0,0,0,0,0,0,0,0],"sum_hessian":[4.83E2,2.65E2,2.18E2,9E0,2.56E2,2.3E1,1.95E2,1.1E1,2.45E2,1.1E1,1.2E1,1.3E1,1.82E2],"tree_param":{"num_deleted":"0","num_feature":"8","num_nodes":"13","size_leaf_vector":"1"}},{"base_weights":[4.3142764E-4,8.737821E-3,-2.2957198E-2,5.3839367E-3,3.6008419E-3,7.202125E-3,-6.2266946E-2,-2.0978955E-4,7.912768E-4,-4.177628E-4,4.751751E-3,1.1937824E-3,-4.024828E-3],"categories":[],"categories_nodes":[],"categories_segments":[],"categories_sizes":[],"default_left":[0,0,0,0,0,0,0,0,0,0,0,0,0],"id":98,"left_children":[1,3,5,7,-1,9,11,-1,-1,-1,-1,-1,-1],"loss_changes":[9.372656E-2,1.1988908E-1,1.5095755E-1,7.869138E-2,0E0,2.0255652E-1,3.4045416E-1,0E0,0E0,0E0,0E0,0E0,0E0],"parents":[2147483647,0,0,1,1,2,2,3,3,5,5,6,6],"right_children":[2,4,6,8,-1,10,12,-1,-1,-1,-1,-1,-1],"split_conditions":[2.1170456E0,2.1037984E0,8.47E0,2.41E1,3.6008419E-3,4.25E1,2.71E1,-2.0978955E-4,7.912768E-4,-4.177628E-4,4.751751E-3,1.1937824E-3,-4.024828E-3],"split_indices":[0,0,6,7,0,7,7,0,0,0,0,0,0],"split_type":[0,0,0,0,0,0,0,0,0,0,0,0,0],"sum_hessian":[4.84E2,3.58E2,1.26E2,3.47E2,1.1E1,7.1E1,5.5E1,2.13E2,1.34E2,6.2E1,9E0,2.1E1,3.4E1],"tree_param":{"num_deleted":"0","num_feature":"8","num_nodes":"13","size_leaf_vector":"1"}},{"base_weights":[-8.145772E-4,7.4014394E-3,-4.6049483E-2,4.490055E-3,2.8684367E-3,-1.0268261E-2,-7.7497736E-2,5.5642857E-5,2.0068537E-3,-1.5531073E-3,9.849607E-4,-4.8302067E-3,-1.4744711E-3],"categories":[],"categories_nodes":[],"categories_segments":[],"categories_sizes":[],"default_left":[0,0,0,0,0,0,0,0,0,0,0,0,0],"id":99,"left_children":[1,3,5,7,-1,9,11,-1,-1,-1,-1,-1,-1],"loss_changes":[1.8390368E-1,9.582131E-2,8.338143E-2,6.2431663E-2,0E0,5.5851046E-2,8.612934E-2,0E0,0E0,0E0,0E0,0E0,0E0],"parents":[2147483647,0,0,1,1,2,2,3,3,5,5,6,6],"right_children":[2,4,6,8,-1,10,12,-1,-1,-1,-1,-1,-1],"split_conditions":[4.12982E-1,1.3475002E0,1.1972382E0,3.919695E-1,2.8684367E-3,8.990917E-1,1.3327924E0,5.5642857E-5,2.0068537E-3,-1.5531073E-3,9.849607E-4,-4.8302067E-3,-1.4744711E-3],"split_indices":[2,5,5,2,0,5,5,0,0,0,0,0,0],"split_type":[0,0,0,0,0,0,0,0,0,0,0,0,0],"sum_hessian":[4.92E2,4.16E2,7.6E1,4.02E2,1.4E1,3.6E1,4E1,3.84E2,1.8E1,1.9E1,1.7E1,1.2E1,2.8E1],"tree_param":{"num_deleted":"0","num_feature":"8","num_nodes":"13","size_leaf_vector":"1"}}]},"name":"gbtree"},"learner_model_param":{"base_score":"4.2958946E0","boost_from_average":"1","num_class":"0","num_feature":"8","num_target":"1"},"objective":{"name":"reg:squarederror","reg_loss_param":{"scale_pos_weight":"1"}}},"version":[2,0,2]}